digraph Tree {
node [shape=box] ;
0 [label="marital-status= Married-spouse-absent <= 0.5\nentropy = 0.7967\nsamples = 7728\nvalue = [5873, 1854, 1]"] ;
1 [label="capital-gain <= 7139.5\nentropy = 0.3461\nsamples = 4191\nvalue = [3922, 268, 1]"] ;
0 -> 1 [labeldistance=2.5, labelangle=45, headlabel="True"] ;
2 [label="education-num <= 12.5\nentropy = 0.2784\nsamples = 4115\nvalue = [3919, 195, 1]"] ;
1 -> 2 ;
3 [label="age <= 29.5\nentropy = 0.1628\nsamples = 3323\nvalue = [3245, 77, 1]"] ;
2 -> 3 ;
4 [label="marital-status= Divorced <= 0.5\nentropy = 0.0383\nsamples = 1586\nvalue = [1580, 5, 1]"] ;
3 -> 4 ;
5 [label="capital-loss <= 2408.5\nentropy = 0.0308\nsamples = 1585\nvalue = [1580, 5, 0]"] ;
4 -> 5 ;
6 [label="age <= 23.5\nentropy = 0.0254\nsamples = 1584\nvalue = [1580, 4, 0]"] ;
5 -> 6 ;
7 [label="entropy = 0.0\nsamples = 1011\nvalue = [1011, 0, 0]"] ;
6 -> 7 ;
8 [label="fnlwgt <= 23689.0\nentropy = 0.06\nsamples = 573\nvalue = [569, 4, 0]"] ;
6 -> 8 ;
9 [label="sex= Female <= 0.5\nentropy = 1.0\nsamples = 2\nvalue = [1, 1, 0]"] ;
8 -> 9 ;
10 [label="entropy = 0.0\nsamples = 1\nvalue = [0, 1, 0]"] ;
9 -> 10 ;
11 [label="entropy = 0.0\nsamples = 1\nvalue = [1, 0, 0]"] ;
9 -> 11 ;
12 [label="hours-per-week <= 44.5\nentropy = 0.0473\nsamples = 571\nvalue = [568, 3, 0]"] ;
8 -> 12 ;
13 [label="occupation= Tech-support <= 0.5\nentropy = 0.0222\nsamples = 463\nvalue = [462, 1, 0]"] ;
12 -> 13 ;
14 [label="entropy = 0.0\nsamples = 442\nvalue = [442, 0, 0]"] ;
13 -> 14 ;
15 [label="marital-status= Widowed <= 0.5\nentropy = 0.2762\nsamples = 21\nvalue = [20, 1, 0]"] ;
13 -> 15 ;
16 [label="entropy = 0.0\nsamples = 19\nvalue = [19, 0, 0]"] ;
15 -> 16 ;
17 [label="fnlwgt <= 200784.0\nentropy = 1.0\nsamples = 2\nvalue = [1, 1, 0]"] ;
15 -> 17 ;
18 [label="entropy = 0.0\nsamples = 1\nvalue = [1, 0, 0]"] ;
17 -> 18 ;
19 [label="entropy = 0.0\nsamples = 1\nvalue = [0, 1, 0]"] ;
17 -> 19 ;
20 [label="education= HS-grad <= 0.5\nentropy = 0.133\nsamples = 108\nvalue = [106, 2, 0]"] ;
12 -> 20 ;
21 [label="entropy = 0.0\nsamples = 71\nvalue = [71, 0, 0]"] ;
20 -> 21 ;
22 [label="fnlwgt <= 190543.5\nentropy = 0.3034\nsamples = 37\nvalue = [35, 2, 0]"] ;
20 -> 22 ;
23 [label="fnlwgt <= 189935.5\nentropy = 0.5033\nsamples = 18\nvalue = [16, 2, 0]"] ;
22 -> 23 ;
24 [label="hours-per-week <= 46.5\nentropy = 0.3228\nsamples = 17\nvalue = [16, 1, 0]"] ;
23 -> 24 ;
25 [label="sex= Female <= 0.5\nentropy = 0.9183\nsamples = 3\nvalue = [2, 1, 0]"] ;
24 -> 25 ;
26 [label="entropy = 0.0\nsamples = 2\nvalue = [2, 0, 0]"] ;
25 -> 26 ;
27 [label="entropy = 0.0\nsamples = 1\nvalue = [0, 1, 0]"] ;
25 -> 27 ;
28 [label="entropy = 0.0\nsamples = 14\nvalue = [14, 0, 0]"] ;
24 -> 28 ;
29 [label="entropy = 0.0\nsamples = 1\nvalue = [0, 1, 0]"] ;
23 -> 29 ;
30 [label="entropy = 0.0\nsamples = 19\nvalue = [19, 0, 0]"] ;
22 -> 30 ;
31 [label="entropy = 0.0\nsamples = 1\nvalue = [0, 1, 0]"] ;
5 -> 31 ;
32 [label="entropy = 0.0\nsamples = 1\nvalue = [0, 0, 1]"] ;
4 -> 32 ;
33 [label="hours-per-week <= 42.5\nentropy = 0.2489\nsamples = 1737\nvalue = [1665, 72, 0]"] ;
3 -> 33 ;
34 [label="occupation= Prof-specialty <= 0.5\nentropy = 0.1762\nsamples = 1362\nvalue = [1326, 36, 0]"] ;
33 -> 34 ;
35 [label="native-country= India <= 0.5\nentropy = 0.1503\nsamples = 1297\nvalue = [1269, 28, 0]"] ;
34 -> 35 ;
36 [label="fnlwgt <= 23426.0\nentropy = 0.1461\nsamples = 1296\nvalue = [1269, 27, 0]"] ;
35 -> 36 ;
37 [label="fnlwgt <= 20105.0\nentropy = 0.8631\nsamples = 7\nvalue = [5, 2, 0]"] ;
36 -> 37 ;
38 [label="entropy = 0.0\nsamples = 4\nvalue = [4, 0, 0]"] ;
37 -> 38 ;
39 [label="sex= Female <= 0.5\nentropy = 0.9183\nsamples = 3\nvalue = [1, 2, 0]"] ;
37 -> 39 ;
40 [label="entropy = 0.0\nsamples = 1\nvalue = [1, 0, 0]"] ;
39 -> 40 ;
41 [label="entropy = 0.0\nsamples = 2\nvalue = [0, 2, 0]"] ;
39 -> 41 ;
42 [label="sex= Female <= 0.5\nentropy = 0.138\nsamples = 1289\nvalue = [1264, 25, 0]"] ;
36 -> 42 ;
43 [label="age <= 50.5\nentropy = 0.2146\nsamples = 469\nvalue = [453, 16, 0]"] ;
42 -> 43 ;
44 [label="education= Some-college <= 0.5\nentropy = 0.1254\nsamples = 349\nvalue = [343, 6, 0]"] ;
43 -> 44 ;
45 [label="age <= 41.5\nentropy = 0.0635\nsamples = 268\nvalue = [266, 2, 0]"] ;
44 -> 45 ;
46 [label="entropy = 0.0\nsamples = 191\nvalue = [191, 0, 0]"] ;
45 -> 46 ;
47 [label="fnlwgt <= 224956.0\nentropy = 0.1738\nsamples = 77\nvalue = [75, 2, 0]"] ;
45 -> 47 ;
48 [label="entropy = 0.0\nsamples = 49\nvalue = [49, 0, 0]"] ;
47 -> 48 ;
49 [label="fnlwgt <= 233367.0\nentropy = 0.3712\nsamples = 28\nvalue = [26, 2, 0]"] ;
47 -> 49 ;
50 [label="entropy = 0.0\nsamples = 1\nvalue = [0, 1, 0]"] ;
49 -> 50 ;
51 [label="occupation= Protective-serv <= 0.5\nentropy = 0.2285\nsamples = 27\nvalue = [26, 1, 0]"] ;
49 -> 51 ;
52 [label="entropy = 0.0\nsamples = 26\nvalue = [26, 0, 0]"] ;
51 -> 52 ;
53 [label="entropy = 0.0\nsamples = 1\nvalue = [0, 1, 0]"] ;
51 -> 53 ;
54 [label="fnlwgt <= 218091.5\nentropy = 0.2838\nsamples = 81\nvalue = [77, 4, 0]"] ;
44 -> 54 ;
55 [label="fnlwgt <= 203101.0\nentropy = 0.4199\nsamples = 47\nvalue = [43, 4, 0]"] ;
54 -> 55 ;
56 [label="occupation= Craft-repair <= 0.5\nentropy = 0.2714\nsamples = 43\nvalue = [41, 2, 0]"] ;
55 -> 56 ;
57 [label="entropy = 0.0\nsamples = 29\nvalue = [29, 0, 0]"] ;
56 -> 57 ;
58 [label="age <= 31.5\nentropy = 0.5917\nsamples = 14\nvalue = [12, 2, 0]"] ;
56 -> 58 ;
59 [label="entropy = 0.0\nsamples = 1\nvalue = [0, 1, 0]"] ;
58 -> 59 ;
60 [label="age <= 39.5\nentropy = 0.3912\nsamples = 13\nvalue = [12, 1, 0]"] ;
58 -> 60 ;
61 [label="entropy = 0.0\nsamples = 9\nvalue = [9, 0, 0]"] ;
60 -> 61 ;
62 [label="relationship= Own-child <= 0.5\nentropy = 0.8113\nsamples = 4\nvalue = [3, 1, 0]"] ;
60 -> 62 ;
63 [label="workclass= Private <= 0.5\nentropy = 1.0\nsamples = 2\nvalue = [1, 1, 0]"] ;
62 -> 63 ;
64 [label="entropy = 0.0\nsamples = 1\nvalue = [1, 0, 0]"] ;
63 -> 64 ;
65 [label="entropy = 0.0\nsamples = 1\nvalue = [0, 1, 0]"] ;
63 -> 65 ;
66 [label="entropy = 0.0\nsamples = 2\nvalue = [2, 0, 0]"] ;
62 -> 66 ;
67 [label="fnlwgt <= 207619.5\nentropy = 1.0\nsamples = 4\nvalue = [2, 2, 0]"] ;
55 -> 67 ;
68 [label="entropy = 0.0\nsamples = 1\nvalue = [0, 1, 0]"] ;
67 -> 68 ;
69 [label="marital-status= Separated <= 0.5\nentropy = 0.9183\nsamples = 3\nvalue = [2, 1, 0]"] ;
67 -> 69 ;
70 [label="entropy = 0.0\nsamples = 1\nvalue = [0, 1, 0]"] ;
69 -> 70 ;
71 [label="entropy = 0.0\nsamples = 2\nvalue = [2, 0, 0]"] ;
69 -> 71 ;
72 [label="entropy = 0.0\nsamples = 34\nvalue = [34, 0, 0]"] ;
54 -> 72 ;
73 [label="fnlwgt <= 174210.5\nentropy = 0.4138\nsamples = 120\nvalue = [110, 10, 0]"] ;
43 -> 73 ;
74 [label="fnlwgt <= 162862.5\nentropy = 0.5639\nsamples = 68\nvalue = [59, 9, 0]"] ;
73 -> 74 ;
75 [label="occupation= Transport-moving <= 0.5\nentropy = 0.4187\nsamples = 59\nvalue = [54, 5, 0]"] ;
74 -> 75 ;
76 [label="native-country= Italy <= 0.5\nentropy = 0.2352\nsamples = 52\nvalue = [50, 2, 0]"] ;
75 -> 76 ;
77 [label="education= Assoc-acdm <= 0.5\nentropy = 0.1392\nsamples = 51\nvalue = [50, 1, 0]"] ;
76 -> 77 ;
78 [label="entropy = 0.0\nsamples = 48\nvalue = [48, 0, 0]"] ;
77 -> 78 ;
79 [label="occupation= Exec-managerial <= 0.5\nentropy = 0.9183\nsamples = 3\nvalue = [2, 1, 0]"] ;
77 -> 79 ;
80 [label="entropy = 0.0\nsamples = 2\nvalue = [2, 0, 0]"] ;
79 -> 80 ;
81 [label="entropy = 0.0\nsamples = 1\nvalue = [0, 1, 0]"] ;
79 -> 81 ;
82 [label="entropy = 0.0\nsamples = 1\nvalue = [0, 1, 0]"] ;
76 -> 82 ;
83 [label="education-num <= 6.5\nentropy = 0.9852\nsamples = 7\nvalue = [4, 3, 0]"] ;
75 -> 83 ;
84 [label="entropy = 0.0\nsamples = 3\nvalue = [3, 0, 0]"] ;
83 -> 84 ;
85 [label="age <= 52.5\nentropy = 0.8113\nsamples = 4\nvalue = [1, 3, 0]"] ;
83 -> 85 ;
86 [label="entropy = 0.0\nsamples = 1\nvalue = [1, 0, 0]"] ;
85 -> 86 ;
87 [label="entropy = 0.0\nsamples = 3\nvalue = [0, 3, 0]"] ;
85 -> 87 ;
88 [label="occupation= Craft-repair <= 0.5\nentropy = 0.9911\nsamples = 9\nvalue = [5, 4, 0]"] ;
74 -> 88 ;
89 [label="occupation= Machine-op-inspct <= 0.5\nentropy = 0.9183\nsamples = 6\nvalue = [2, 4, 0]"] ;
88 -> 89 ;
90 [label="entropy = 0.0\nsamples = 4\nvalue = [0, 4, 0]"] ;
89 -> 90 ;
91 [label="entropy = 0.0\nsamples = 2\nvalue = [2, 0, 0]"] ;
89 -> 91 ;
92 [label="entropy = 0.0\nsamples = 3\nvalue = [3, 0, 0]"] ;
88 -> 92 ;
93 [label="race= Other <= 0.5\nentropy = 0.1371\nsamples = 52\nvalue = [51, 1, 0]"] ;
73 -> 93 ;
94 [label="entropy = 0.0\nsamples = 51\nvalue = [51, 0, 0]"] ;
93 -> 94 ;
95 [label="entropy = 0.0\nsamples = 1\nvalue = [0, 1, 0]"] ;
93 -> 95 ;
96 [label="marital-status= Married-AF-spouse <= 0.5\nentropy = 0.0872\nsamples = 820\nvalue = [811, 9, 0]"] ;
42 -> 96 ;
97 [label="entropy = 0.0\nsamples = 453\nvalue = [453, 0, 0]"] ;
96 -> 97 ;
98 [label="occupation= Adm-clerical <= 0.5\nentropy = 0.1661\nsamples = 367\nvalue = [358, 9, 0]"] ;
96 -> 98 ;
99 [label="workclass= Private <= 0.5\nentropy = 0.2293\nsamples = 242\nvalue = [233, 9, 0]"] ;
98 -> 99 ;
100 [label="occupation= Protective-serv <= 0.5\nentropy = 0.4237\nsamples = 58\nvalue = [53, 5, 0]"] ;
99 -> 100 ;
101 [label="age <= 68.5\nentropy = 0.3666\nsamples = 57\nvalue = [53, 4, 0]"] ;
100 -> 101 ;
102 [label="occupation= Craft-repair <= 0.5\nentropy = 0.3014\nsamples = 56\nvalue = [53, 3, 0]"] ;
101 -> 102 ;
103 [label="age <= 54.5\nentropy = 0.2254\nsamples = 55\nvalue = [53, 2, 0]"] ;
102 -> 103 ;
104 [label="entropy = 0.0\nsamples = 38\nvalue = [38, 0, 0]"] ;
103 -> 104 ;
105 [label="education-num <= 9.5\nentropy = 0.5226\nsamples = 17\nvalue = [15, 2, 0]"] ;
103 -> 105 ;
106 [label="entropy = 0.0\nsamples = 12\nvalue = [12, 0, 0]"] ;
105 -> 106 ;
107 [label="age <= 61.5\nentropy = 0.971\nsamples = 5\nvalue = [3, 2, 0]"] ;
105 -> 107 ;
108 [label="entropy = 0.0\nsamples = 2\nvalue = [0, 2, 0]"] ;
107 -> 108 ;
109 [label="entropy = 0.0\nsamples = 3\nvalue = [3, 0, 0]"] ;
107 -> 109 ;
110 [label="entropy = 0.0\nsamples = 1\nvalue = [0, 1, 0]"] ;
102 -> 110 ;
111 [label="entropy = 0.0\nsamples = 1\nvalue = [0, 1, 0]"] ;
101 -> 111 ;
112 [label="entropy = 0.0\nsamples = 1\nvalue = [0, 1, 0]"] ;
100 -> 112 ;
113 [label="occupation= Exec-managerial <= 0.5\nentropy = 0.1511\nsamples = 184\nvalue = [180, 4, 0]"] ;
99 -> 113 ;
114 [label="relationship= Not-in-family <= 0.5\nentropy = 0.0984\nsamples = 157\nvalue = [155, 2, 0]"] ;
113 -> 114 ;
115 [label="entropy = 0.0\nsamples = 88\nvalue = [88, 0, 0]"] ;
114 -> 115 ;
116 [label="fnlwgt <= 179568.5\nentropy = 0.1893\nsamples = 69\nvalue = [67, 2, 0]"] ;
114 -> 116 ;
117 [label="entropy = 0.0\nsamples = 39\nvalue = [39, 0, 0]"] ;
116 -> 117 ;
118 [label="fnlwgt <= 184671.5\nentropy = 0.3534\nsamples = 30\nvalue = [28, 2, 0]"] ;
116 -> 118 ;
119 [label="entropy = 0.0\nsamples = 1\nvalue = [0, 1, 0]"] ;
118 -> 119 ;
120 [label="age <= 56.5\nentropy = 0.2164\nsamples = 29\nvalue = [28, 1, 0]"] ;
118 -> 120 ;
121 [label="entropy = 0.0\nsamples = 25\nvalue = [25, 0, 0]"] ;
120 -> 121 ;
122 [label="hours-per-week <= 36.5\nentropy = 0.8113\nsamples = 4\nvalue = [3, 1, 0]"] ;
120 -> 122 ;
123 [label="entropy = 0.0\nsamples = 3\nvalue = [3, 0, 0]"] ;
122 -> 123 ;
124 [label="entropy = 0.0\nsamples = 1\nvalue = [0, 1, 0]"] ;
122 -> 124 ;
125 [label="education= 11th <= 0.5\nentropy = 0.3809\nsamples = 27\nvalue = [25, 2, 0]"] ;
113 -> 125 ;
126 [label="race= Black <= 0.5\nentropy = 0.2352\nsamples = 26\nvalue = [25, 1, 0]"] ;
125 -> 126 ;
127 [label="entropy = 0.0\nsamples = 25\nvalue = [25, 0, 0]"] ;
126 -> 127 ;
128 [label="entropy = 0.0\nsamples = 1\nvalue = [0, 1, 0]"] ;
126 -> 128 ;
129 [label="entropy = 0.0\nsamples = 1\nvalue = [0, 1, 0]"] ;
125 -> 129 ;
130 [label="entropy = 0.0\nsamples = 125\nvalue = [125, 0, 0]"] ;
98 -> 130 ;
131 [label="entropy = 0.0\nsamples = 1\nvalue = [0, 1, 0]"] ;
35 -> 131 ;
132 [label="hours-per-week <= 39.0\nentropy = 0.5381\nsamples = 65\nvalue = [57, 8, 0]"] ;
34 -> 132 ;
133 [label="entropy = 0.0\nsamples = 20\nvalue = [20, 0, 0]"] ;
132 -> 133 ;
134 [label="age <= 34.5\nentropy = 0.6752\nsamples = 45\nvalue = [37, 8, 0]"] ;
132 -> 134 ;
135 [label="entropy = 0.0\nsamples = 11\nvalue = [11, 0, 0]"] ;
134 -> 135 ;
136 [label="marital-status= Never-married <= 0.5\nentropy = 0.7871\nsamples = 34\nvalue = [26, 8, 0]"] ;
134 -> 136 ;
137 [label="fnlwgt <= 150192.5\nentropy = 0.6962\nsamples = 32\nvalue = [26, 6, 0]"] ;
136 -> 137 ;
138 [label="entropy = 0.0\nsamples = 10\nvalue = [10, 0, 0]"] ;
137 -> 138 ;
139 [label="age <= 59.0\nentropy = 0.8454\nsamples = 22\nvalue = [16, 6, 0]"] ;
137 -> 139 ;
140 [label="fnlwgt <= 176291.5\nentropy = 0.7219\nsamples = 20\nvalue = [16, 4, 0]"] ;
139 -> 140 ;
141 [label="age <= 42.5\nentropy = 0.9183\nsamples = 3\nvalue = [1, 2, 0]"] ;
140 -> 141 ;
142 [label="entropy = 0.0\nsamples = 2\nvalue = [0, 2, 0]"] ;
141 -> 142 ;
143 [label="entropy = 0.0\nsamples = 1\nvalue = [1, 0, 0]"] ;
141 -> 143 ;
144 [label="capital-loss <= 1452.0\nentropy = 0.5226\nsamples = 17\nvalue = [15, 2, 0]"] ;
140 -> 144 ;
145 [label="age <= 51.0\nentropy = 0.3534\nsamples = 15\nvalue = [14, 1, 0]"] ;
144 -> 145 ;
146 [label="entropy = 0.0\nsamples = 13\nvalue = [13, 0, 0]"] ;
145 -> 146 ;
147 [label="age <= 55.0\nentropy = 1.0\nsamples = 2\nvalue = [1, 1, 0]"] ;
145 -> 147 ;
148 [label="entropy = 0.0\nsamples = 1\nvalue = [0, 1, 0]"] ;
147 -> 148 ;
149 [label="entropy = 0.0\nsamples = 1\nvalue = [1, 0, 0]"] ;
147 -> 149 ;
150 [label="workclass= Private <= 0.5\nentropy = 1.0\nsamples = 2\nvalue = [1, 1, 0]"] ;
144 -> 150 ;
151 [label="entropy = 0.0\nsamples = 1\nvalue = [1, 0, 0]"] ;
150 -> 151 ;
152 [label="entropy = 0.0\nsamples = 1\nvalue = [0, 1, 0]"] ;
150 -> 152 ;
153 [label="entropy = 0.0\nsamples = 2\nvalue = [0, 2, 0]"] ;
139 -> 153 ;
154 [label="entropy = 0.0\nsamples = 2\nvalue = [0, 2, 0]"] ;
136 -> 154 ;
155 [label="capital-loss <= 2449.0\nentropy = 0.4562\nsamples = 375\nvalue = [339, 36, 0]"] ;
33 -> 155 ;
156 [label="sex= Female <= 0.5\nentropy = 0.4238\nsamples = 371\nvalue = [339, 32, 0]"] ;
155 -> 156 ;
157 [label="age <= 51.5\nentropy = 0.5169\nsamples = 242\nvalue = [214, 28, 0]"] ;
156 -> 157 ;
158 [label="education= Some-college <= 0.5\nentropy = 0.4451\nsamples = 216\nvalue = [196, 20, 0]"] ;
157 -> 158 ;
159 [label="age <= 37.5\nentropy = 0.279\nsamples = 145\nvalue = [138, 7, 0]"] ;
158 -> 159 ;
160 [label="hours-per-week <= 43.5\nentropy = 0.3712\nsamples = 98\nvalue = [91, 7, 0]"] ;
159 -> 160 ;
161 [label="entropy = 0.0\nsamples = 1\nvalue = [0, 1, 0]"] ;
160 -> 161 ;
162 [label="occupation= Prof-specialty <= 0.5\nentropy = 0.3348\nsamples = 97\nvalue = [91, 6, 0]"] ;
160 -> 162 ;
163 [label="education= 12th <= 0.5\nentropy = 0.2952\nsamples = 96\nvalue = [91, 5, 0]"] ;
162 -> 163 ;
164 [label="occupation= Sales <= 0.5\nentropy = 0.2539\nsamples = 94\nvalue = [90, 4, 0]"] ;
163 -> 164 ;
165 [label="fnlwgt <= 31634.0\nentropy = 0.1687\nsamples = 80\nvalue = [78, 2, 0]"] ;
164 -> 165 ;
166 [label="fnlwgt <= 30040.5\nentropy = 0.8113\nsamples = 4\nvalue = [3, 1, 0]"] ;
165 -> 166 ;
167 [label="entropy = 0.0\nsamples = 3\nvalue = [3, 0, 0]"] ;
166 -> 167 ;
168 [label="entropy = 0.0\nsamples = 1\nvalue = [0, 1, 0]"] ;
166 -> 168 ;
169 [label="fnlwgt <= 344081.5\nentropy = 0.1011\nsamples = 76\nvalue = [75, 1, 0]"] ;
165 -> 169 ;
170 [label="entropy = 0.0\nsamples = 69\nvalue = [69, 0, 0]"] ;
169 -> 170 ;
171 [label="workclass= Self-emp-not-inc <= 0.5\nentropy = 0.5917\nsamples = 7\nvalue = [6, 1, 0]"] ;
169 -> 171 ;
172 [label="entropy = 0.0\nsamples = 6\nvalue = [6, 0, 0]"] ;
171 -> 172 ;
173 [label="entropy = 0.0\nsamples = 1\nvalue = [0, 1, 0]"] ;
171 -> 173 ;
174 [label="workclass= Self-emp-not-inc <= 0.5\nentropy = 0.5917\nsamples = 14\nvalue = [12, 2, 0]"] ;
164 -> 174 ;
175 [label="relationship= Unmarried <= 0.5\nentropy = 0.7642\nsamples = 9\nvalue = [7, 2, 0]"] ;
174 -> 175 ;
176 [label="education= Assoc-voc <= 0.5\nentropy = 0.5436\nsamples = 8\nvalue = [7, 1, 0]"] ;
175 -> 176 ;
177 [label="entropy = 0.0\nsamples = 7\nvalue = [7, 0, 0]"] ;
176 -> 177 ;
178 [label="entropy = 0.0\nsamples = 1\nvalue = [0, 1, 0]"] ;
176 -> 178 ;
179 [label="entropy = 0.0\nsamples = 1\nvalue = [0, 1, 0]"] ;
175 -> 179 ;
180 [label="entropy = 0.0\nsamples = 5\nvalue = [5, 0, 0]"] ;
174 -> 180 ;
181 [label="occupation= Craft-repair <= 0.5\nentropy = 1.0\nsamples = 2\nvalue = [1, 1, 0]"] ;
163 -> 181 ;
182 [label="entropy = 0.0\nsamples = 1\nvalue = [1, 0, 0]"] ;
181 -> 182 ;
183 [label="entropy = 0.0\nsamples = 1\nvalue = [0, 1, 0]"] ;
181 -> 183 ;
184 [label="entropy = 0.0\nsamples = 1\nvalue = [0, 1, 0]"] ;
162 -> 184 ;
185 [label="entropy = 0.0\nsamples = 47\nvalue = [47, 0, 0]"] ;
159 -> 185 ;
186 [label="fnlwgt <= 98807.0\nentropy = 0.6868\nsamples = 71\nvalue = [58, 13, 0]"] ;
158 -> 186 ;
187 [label="entropy = 0.0\nsamples = 16\nvalue = [16, 0, 0]"] ;
186 -> 187 ;
188 [label="fnlwgt <= 121703.0\nentropy = 0.7889\nsamples = 55\nvalue = [42, 13, 0]"] ;
186 -> 188 ;
189 [label="entropy = 0.0\nsamples = 2\nvalue = [0, 2, 0]"] ;
188 -> 189 ;
190 [label="hours-per-week <= 63.5\nentropy = 0.7368\nsamples = 53\nvalue = [42, 11, 0]"] ;
188 -> 190 ;
191 [label="native-country=  <= 0.5\nentropy = 0.65\nsamples = 48\nvalue = [40, 8, 0]"] ;
190 -> 191 ;
192 [label="relationship= Own-child <= 0.5\nentropy = 0.6072\nsamples = 47\nvalue = [40, 7, 0]"] ;
191 -> 192 ;
193 [label="fnlwgt <= 230182.5\nentropy = 0.669\nsamples = 40\nvalue = [33, 7, 0]"] ;
192 -> 193 ;
194 [label="marital-status= Widowed <= 0.5\nentropy = 0.8113\nsamples = 24\nvalue = [18, 6, 0]"] ;
193 -> 194 ;
195 [label="hours-per-week <= 45.5\nentropy = 0.7554\nsamples = 23\nvalue = [18, 5, 0]"] ;
194 -> 195 ;
196 [label="entropy = 0.0\nsamples = 8\nvalue = [8, 0, 0]"] ;
195 -> 196 ;
197 [label="fnlwgt <= 142868.0\nentropy = 0.9183\nsamples = 15\nvalue = [10, 5, 0]"] ;
195 -> 197 ;
198 [label="entropy = 0.0\nsamples = 3\nvalue = [3, 0, 0]"] ;
197 -> 198 ;
199 [label="age <= 31.5\nentropy = 0.9799\nsamples = 12\nvalue = [7, 5, 0]"] ;
197 -> 199 ;
200 [label="entropy = 0.0\nsamples = 1\nvalue = [0, 1, 0]"] ;
199 -> 200 ;
201 [label="fnlwgt <= 188110.5\nentropy = 0.9457\nsamples = 11\nvalue = [7, 4, 0]"] ;
199 -> 201 ;
202 [label="relationship= Unmarried <= 0.5\nentropy = 0.971\nsamples = 5\nvalue = [2, 3, 0]"] ;
201 -> 202 ;
203 [label="occupation= Protective-serv <= 0.5\nentropy = 0.9183\nsamples = 3\nvalue = [2, 1, 0]"] ;
202 -> 203 ;
204 [label="entropy = 0.0\nsamples = 2\nvalue = [2, 0, 0]"] ;
203 -> 204 ;
205 [label="entropy = 0.0\nsamples = 1\nvalue = [0, 1, 0]"] ;
203 -> 205 ;
206 [label="entropy = 0.0\nsamples = 2\nvalue = [0, 2, 0]"] ;
202 -> 206 ;
207 [label="hours-per-week <= 48.0\nentropy = 0.65\nsamples = 6\nvalue = [5, 1, 0]"] ;
201 -> 207 ;
208 [label="entropy = 0.0\nsamples = 1\nvalue = [0, 1, 0]"] ;
207 -> 208 ;
209 [label="entropy = 0.0\nsamples = 5\nvalue = [5, 0, 0]"] ;
207 -> 209 ;
210 [label="entropy = 0.0\nsamples = 1\nvalue = [0, 1, 0]"] ;
194 -> 210 ;
211 [label="occupation= Prof-specialty <= 0.5\nentropy = 0.3373\nsamples = 16\nvalue = [15, 1, 0]"] ;
193 -> 211 ;
212 [label="entropy = 0.0\nsamples = 14\nvalue = [14, 0, 0]"] ;
211 -> 212 ;
213 [label="fnlwgt <= 358329.0\nentropy = 1.0\nsamples = 2\nvalue = [1, 1, 0]"] ;
211 -> 213 ;
214 [label="entropy = 0.0\nsamples = 1\nvalue = [1, 0, 0]"] ;
213 -> 214 ;
215 [label="entropy = 0.0\nsamples = 1\nvalue = [0, 1, 0]"] ;
213 -> 215 ;
216 [label="entropy = 0.0\nsamples = 7\nvalue = [7, 0, 0]"] ;
192 -> 216 ;
217 [label="entropy = 0.0\nsamples = 1\nvalue = [0, 1, 0]"] ;
191 -> 217 ;
218 [label="occupation= Exec-managerial <= 0.5\nentropy = 0.971\nsamples = 5\nvalue = [2, 3, 0]"] ;
190 -> 218 ;
219 [label="age <= 40.5\nentropy = 0.9183\nsamples = 3\nvalue = [2, 1, 0]"] ;
218 -> 219 ;
220 [label="entropy = 0.0\nsamples = 2\nvalue = [2, 0, 0]"] ;
219 -> 220 ;
221 [label="entropy = 0.0\nsamples = 1\nvalue = [0, 1, 0]"] ;
219 -> 221 ;
222 [label="entropy = 0.0\nsamples = 2\nvalue = [0, 2, 0]"] ;
218 -> 222 ;
223 [label="hours-per-week <= 49.0\nentropy = 0.8905\nsamples = 26\nvalue = [18, 8, 0]"] ;
157 -> 223 ;
224 [label="fnlwgt <= 168128.5\nentropy = 0.8631\nsamples = 7\nvalue = [2, 5, 0]"] ;
223 -> 224 ;
225 [label="entropy = 0.0\nsamples = 4\nvalue = [0, 4, 0]"] ;
224 -> 225 ;
226 [label="age <= 53.5\nentropy = 0.9183\nsamples = 3\nvalue = [2, 1, 0]"] ;
224 -> 226 ;
227 [label="entropy = 0.0\nsamples = 1\nvalue = [0, 1, 0]"] ;
226 -> 227 ;
228 [label="entropy = 0.0\nsamples = 2\nvalue = [2, 0, 0]"] ;
226 -> 228 ;
229 [label="relationship= Other-relative <= 0.5\nentropy = 0.6292\nsamples = 19\nvalue = [16, 3, 0]"] ;
223 -> 229 ;
230 [label="workclass= Self-emp-not-inc <= 0.5\nentropy = 0.5033\nsamples = 18\nvalue = [16, 2, 0]"] ;
229 -> 230 ;
231 [label="entropy = 0.0\nsamples = 14\nvalue = [14, 0, 0]"] ;
230 -> 231 ;
232 [label="age <= 55.0\nentropy = 1.0\nsamples = 4\nvalue = [2, 2, 0]"] ;
230 -> 232 ;
233 [label="entropy = 0.0\nsamples = 1\nvalue = [1, 0, 0]"] ;
232 -> 233 ;
234 [label="age <= 57.5\nentropy = 0.9183\nsamples = 3\nvalue = [1, 2, 0]"] ;
232 -> 234 ;
235 [label="entropy = 0.0\nsamples = 2\nvalue = [0, 2, 0]"] ;
234 -> 235 ;
236 [label="entropy = 0.0\nsamples = 1\nvalue = [1, 0, 0]"] ;
234 -> 236 ;
237 [label="entropy = 0.0\nsamples = 1\nvalue = [0, 1, 0]"] ;
229 -> 237 ;
238 [label="fnlwgt <= 182923.0\nentropy = 0.1994\nsamples = 129\nvalue = [125, 4, 0]"] ;
156 -> 238 ;
239 [label="entropy = 0.0\nsamples = 67\nvalue = [67, 0, 0]"] ;
238 -> 239 ;
240 [label="workclass= State-gov <= 0.5\nentropy = 0.3451\nsamples = 62\nvalue = [58, 4, 0]"] ;
238 -> 240 ;
241 [label="education= Some-college <= 0.5\nentropy = 0.2829\nsamples = 61\nvalue = [58, 3, 0]"] ;
240 -> 241 ;
242 [label="entropy = 0.0\nsamples = 38\nvalue = [38, 0, 0]"] ;
241 -> 242 ;
243 [label="fnlwgt <= 274319.5\nentropy = 0.5586\nsamples = 23\nvalue = [20, 3, 0]"] ;
241 -> 243 ;
244 [label="relationship= Unmarried <= 0.5\nentropy = 0.8113\nsamples = 12\nvalue = [9, 3, 0]"] ;
243 -> 244 ;
245 [label="marital-status= Married-AF-spouse <= 0.5\nentropy = 0.9852\nsamples = 7\nvalue = [4, 3, 0]"] ;
244 -> 245 ;
246 [label="entropy = 0.0\nsamples = 3\nvalue = [3, 0, 0]"] ;
245 -> 246 ;
247 [label="relationship= Other-relative <= 0.5\nentropy = 0.8113\nsamples = 4\nvalue = [1, 3, 0]"] ;
245 -> 247 ;
248 [label="entropy = 0.0\nsamples = 3\nvalue = [0, 3, 0]"] ;
247 -> 248 ;
249 [label="entropy = 0.0\nsamples = 1\nvalue = [1, 0, 0]"] ;
247 -> 249 ;
250 [label="entropy = 0.0\nsamples = 5\nvalue = [5, 0, 0]"] ;
244 -> 250 ;
251 [label="entropy = 0.0\nsamples = 11\nvalue = [11, 0, 0]"] ;
243 -> 251 ;
252 [label="entropy = 0.0\nsamples = 1\nvalue = [0, 1, 0]"] ;
240 -> 252 ;
253 [label="entropy = 0.0\nsamples = 4\nvalue = [0, 4, 0]"] ;
155 -> 253 ;
254 [label="age <= 29.5\nentropy = 0.6073\nsamples = 792\nvalue = [674, 118, 0]"] ;
2 -> 254 ;
255 [label="education= Prof-school <= 0.5\nentropy = 0.1807\nsamples = 293\nvalue = [285, 8, 0]"] ;
254 -> 255 ;
256 [label="native-country= Philippines <= 0.5\nentropy = 0.1278\nsamples = 284\nvalue = [279, 5, 0]"] ;
255 -> 256 ;
257 [label="capital-loss <= 2053.5\nentropy = 0.1074\nsamples = 282\nvalue = [278, 4, 0]"] ;
256 -> 257 ;
258 [label="relationship= Not-in-family <= 0.5\nentropy = 0.0855\nsamples = 280\nvalue = [277, 3, 0]"] ;
257 -> 258 ;
259 [label="entropy = 0.0\nsamples = 119\nvalue = [119, 0, 0]"] ;
258 -> 259 ;
260 [label="age <= 27.5\nentropy = 0.1337\nsamples = 161\nvalue = [158, 3, 0]"] ;
258 -> 260 ;
261 [label="fnlwgt <= 41011.0\nentropy = 0.0672\nsamples = 125\nvalue = [124, 1, 0]"] ;
260 -> 261 ;
262 [label="fnlwgt <= 40265.0\nentropy = 0.4395\nsamples = 11\nvalue = [10, 1, 0]"] ;
261 -> 262 ;
263 [label="entropy = 0.0\nsamples = 10\nvalue = [10, 0, 0]"] ;
262 -> 263 ;
264 [label="entropy = 0.0\nsamples = 1\nvalue = [0, 1, 0]"] ;
262 -> 264 ;
265 [label="entropy = 0.0\nsamples = 114\nvalue = [114, 0, 0]"] ;
261 -> 265 ;
266 [label="education= Masters <= 0.5\nentropy = 0.3095\nsamples = 36\nvalue = [34, 2, 0]"] ;
260 -> 266 ;
267 [label="hours-per-week <= 49.0\nentropy = 0.1914\nsamples = 34\nvalue = [33, 1, 0]"] ;
266 -> 267 ;
268 [label="entropy = 0.0\nsamples = 29\nvalue = [29, 0, 0]"] ;
267 -> 268 ;
269 [label="occupation= Sales <= 0.5\nentropy = 0.7219\nsamples = 5\nvalue = [4, 1, 0]"] ;
267 -> 269 ;
270 [label="entropy = 0.0\nsamples = 3\nvalue = [3, 0, 0]"] ;
269 -> 270 ;
271 [label="fnlwgt <= 142070.5\nentropy = 1.0\nsamples = 2\nvalue = [1, 1, 0]"] ;
269 -> 271 ;
272 [label="entropy = 0.0\nsamples = 1\nvalue = [1, 0, 0]"] ;
271 -> 272 ;
273 [label="entropy = 0.0\nsamples = 1\nvalue = [0, 1, 0]"] ;
271 -> 273 ;
274 [label="workclass= Private <= 0.5\nentropy = 1.0\nsamples = 2\nvalue = [1, 1, 0]"] ;
266 -> 274 ;
275 [label="entropy = 0.0\nsamples = 1\nvalue = [1, 0, 0]"] ;
274 -> 275 ;
276 [label="entropy = 0.0\nsamples = 1\nvalue = [0, 1, 0]"] ;
274 -> 276 ;
277 [label="relationship= Own-child <= 0.5\nentropy = 1.0\nsamples = 2\nvalue = [1, 1, 0]"] ;
257 -> 277 ;
278 [label="entropy = 0.0\nsamples = 1\nvalue = [1, 0, 0]"] ;
277 -> 278 ;
279 [label="entropy = 0.0\nsamples = 1\nvalue = [0, 1, 0]"] ;
277 -> 279 ;
280 [label="fnlwgt <= 131729.5\nentropy = 1.0\nsamples = 2\nvalue = [1, 1, 0]"] ;
256 -> 280 ;
281 [label="entropy = 0.0\nsamples = 1\nvalue = [1, 0, 0]"] ;
280 -> 281 ;
282 [label="entropy = 0.0\nsamples = 1\nvalue = [0, 1, 0]"] ;
280 -> 282 ;
283 [label="fnlwgt <= 159923.0\nentropy = 0.9183\nsamples = 9\nvalue = [6, 3, 0]"] ;
255 -> 283 ;
284 [label="workclass= Local-gov <= 0.5\nentropy = 0.8113\nsamples = 4\nvalue = [1, 3, 0]"] ;
283 -> 284 ;
285 [label="entropy = 0.0\nsamples = 3\nvalue = [0, 3, 0]"] ;
284 -> 285 ;
286 [label="entropy = 0.0\nsamples = 1\nvalue = [1, 0, 0]"] ;
284 -> 286 ;
287 [label="entropy = 0.0\nsamples = 5\nvalue = [5, 0, 0]"] ;
283 -> 287 ;
288 [label="education-num <= 14.5\nentropy = 0.761\nsamples = 499\nvalue = [389, 110, 0]"] ;
254 -> 288 ;
289 [label="hours-per-week <= 42.5\nentropy = 0.7033\nsamples = 461\nvalue = [373, 88, 0]"] ;
288 -> 289 ;
290 [label="hours-per-week <= 39.5\nentropy = 0.5497\nsamples = 283\nvalue = [247, 36, 0]"] ;
289 -> 290 ;
291 [label="fnlwgt <= 414856.0\nentropy = 0.2375\nsamples = 77\nvalue = [74, 3, 0]"] ;
290 -> 291 ;
292 [label="education= Bachelors <= 0.5\nentropy = 0.1756\nsamples = 76\nvalue = [74, 2, 0]"] ;
291 -> 292 ;
293 [label="occupation= Tech-support <= 0.5\nentropy = 0.3621\nsamples = 29\nvalue = [27, 2, 0]"] ;
292 -> 293 ;
294 [label="workclass= Local-gov <= 0.5\nentropy = 0.2223\nsamples = 28\nvalue = [27, 1, 0]"] ;
293 -> 294 ;
295 [label="entropy = 0.0\nsamples = 23\nvalue = [23, 0, 0]"] ;
294 -> 295 ;
296 [label="marital-status= Married-AF-spouse <= 0.5\nentropy = 0.7219\nsamples = 5\nvalue = [4, 1, 0]"] ;
294 -> 296 ;
297 [label="entropy = 0.0\nsamples = 3\nvalue = [3, 0, 0]"] ;
296 -> 297 ;
298 [label="hours-per-week <= 32.5\nentropy = 1.0\nsamples = 2\nvalue = [1, 1, 0]"] ;
296 -> 298 ;
299 [label="entropy = 0.0\nsamples = 1\nvalue = [1, 0, 0]"] ;
298 -> 299 ;
300 [label="entropy = 0.0\nsamples = 1\nvalue = [0, 1, 0]"] ;
298 -> 300 ;
301 [label="entropy = 0.0\nsamples = 1\nvalue = [0, 1, 0]"] ;
293 -> 301 ;
302 [label="entropy = 0.0\nsamples = 47\nvalue = [47, 0, 0]"] ;
292 -> 302 ;
303 [label="entropy = 0.0\nsamples = 1\nvalue = [0, 1, 0]"] ;
291 -> 303 ;
304 [label="relationship= Own-child <= 0.5\nentropy = 0.6348\nsamples = 206\nvalue = [173, 33, 0]"] ;
290 -> 304 ;
305 [label="age <= 46.5\nentropy = 0.683\nsamples = 182\nvalue = [149, 33, 0]"] ;
304 -> 305 ;
306 [label="occupation= Adm-clerical <= 0.5\nentropy = 0.5665\nsamples = 135\nvalue = [117, 18, 0]"] ;
305 -> 306 ;
307 [label="relationship= Not-in-family <= 0.5\nentropy = 0.6292\nsamples = 114\nvalue = [96, 18, 0]"] ;
306 -> 307 ;
308 [label="occupation= Sales <= 0.5\nentropy = 0.2223\nsamples = 28\nvalue = [27, 1, 0]"] ;
307 -> 308 ;
309 [label="entropy = 0.0\nsamples = 25\nvalue = [25, 0, 0]"] ;
308 -> 309 ;
310 [label="fnlwgt <= 292016.5\nentropy = 0.9183\nsamples = 3\nvalue = [2, 1, 0]"] ;
308 -> 310 ;
311 [label="entropy = 0.0\nsamples = 2\nvalue = [2, 0, 0]"] ;
310 -> 311 ;
312 [label="entropy = 0.0\nsamples = 1\nvalue = [0, 1, 0]"] ;
310 -> 312 ;
313 [label="capital-loss <= 704.0\nentropy = 0.7173\nsamples = 86\nvalue = [69, 17, 0]"] ;
307 -> 313 ;
314 [label="fnlwgt <= 346275.5\nentropy = 0.7616\nsamples = 77\nvalue = [60, 17, 0]"] ;
313 -> 314 ;
315 [label="fnlwgt <= 342292.5\nentropy = 0.7941\nsamples = 71\nvalue = [54, 17, 0]"] ;
314 -> 315 ;
316 [label="fnlwgt <= 216970.0\nentropy = 0.7554\nsamples = 69\nvalue = [54, 15, 0]"] ;
315 -> 316 ;
317 [label="fnlwgt <= 64258.0\nentropy = 0.8479\nsamples = 51\nvalue = [37, 14, 0]"] ;
316 -> 317 ;
318 [label="entropy = 0.0\nsamples = 5\nvalue = [5, 0, 0]"] ;
317 -> 318 ;
319 [label="occupation= Other-service <= 0.5\nentropy = 0.8865\nsamples = 46\nvalue = [32, 14, 0]"] ;
317 -> 319 ;
320 [label="sex= Male <= 0.5\nentropy = 0.9262\nsamples = 41\nvalue = [27, 14, 0]"] ;
319 -> 320 ;
321 [label="age <= 44.5\nentropy = 0.7732\nsamples = 22\nvalue = [17, 5, 0]"] ;
320 -> 321 ;
322 [label="fnlwgt <= 166684.5\nentropy = 0.6292\nsamples = 19\nvalue = [16, 3, 0]"] ;
321 -> 322 ;
323 [label="entropy = 0.0\nsamples = 10\nvalue = [10, 0, 0]"] ;
322 -> 323 ;
324 [label="age <= 37.0\nentropy = 0.9183\nsamples = 9\nvalue = [6, 3, 0]"] ;
322 -> 324 ;
325 [label="marital-status= Separated <= 0.5\nentropy = 0.971\nsamples = 5\nvalue = [2, 3, 0]"] ;
324 -> 325 ;
326 [label="entropy = 0.0\nsamples = 2\nvalue = [0, 2, 0]"] ;
325 -> 326 ;
327 [label="fnlwgt <= 180097.0\nentropy = 0.9183\nsamples = 3\nvalue = [2, 1, 0]"] ;
325 -> 327 ;
328 [label="entropy = 0.0\nsamples = 1\nvalue = [0, 1, 0]"] ;
327 -> 328 ;
329 [label="entropy = 0.0\nsamples = 2\nvalue = [2, 0, 0]"] ;
327 -> 329 ;
330 [label="entropy = 0.0\nsamples = 4\nvalue = [4, 0, 0]"] ;
324 -> 330 ;
331 [label="fnlwgt <= 96951.0\nentropy = 0.9183\nsamples = 3\nvalue = [1, 2, 0]"] ;
321 -> 331 ;
332 [label="entropy = 0.0\nsamples = 1\nvalue = [1, 0, 0]"] ;
331 -> 332 ;
333 [label="entropy = 0.0\nsamples = 2\nvalue = [0, 2, 0]"] ;
331 -> 333 ;
334 [label="fnlwgt <= 122584.5\nentropy = 0.998\nsamples = 19\nvalue = [10, 9, 0]"] ;
320 -> 334 ;
335 [label="entropy = 0.0\nsamples = 4\nvalue = [0, 4, 0]"] ;
334 -> 335 ;
336 [label="marital-status= Separated <= 0.5\nentropy = 0.9183\nsamples = 15\nvalue = [10, 5, 0]"] ;
334 -> 336 ;
337 [label="entropy = 0.0\nsamples = 4\nvalue = [4, 0, 0]"] ;
336 -> 337 ;
338 [label="age <= 35.0\nentropy = 0.994\nsamples = 11\nvalue = [6, 5, 0]"] ;
336 -> 338 ;
339 [label="entropy = 0.0\nsamples = 2\nvalue = [0, 2, 0]"] ;
338 -> 339 ;
340 [label="age <= 41.5\nentropy = 0.9183\nsamples = 9\nvalue = [6, 3, 0]"] ;
338 -> 340 ;
341 [label="entropy = 0.0\nsamples = 4\nvalue = [4, 0, 0]"] ;
340 -> 341 ;
342 [label="fnlwgt <= 181157.5\nentropy = 0.971\nsamples = 5\nvalue = [2, 3, 0]"] ;
340 -> 342 ;
343 [label="entropy = 0.0\nsamples = 2\nvalue = [0, 2, 0]"] ;
342 -> 343 ;
344 [label="fnlwgt <= 201378.0\nentropy = 0.9183\nsamples = 3\nvalue = [2, 1, 0]"] ;
342 -> 344 ;
345 [label="entropy = 0.0\nsamples = 2\nvalue = [2, 0, 0]"] ;
344 -> 345 ;
346 [label="entropy = 0.0\nsamples = 1\nvalue = [0, 1, 0]"] ;
344 -> 346 ;
347 [label="entropy = 0.0\nsamples = 5\nvalue = [5, 0, 0]"] ;
319 -> 347 ;
348 [label="fnlwgt <= 297703.5\nentropy = 0.3095\nsamples = 18\nvalue = [17, 1, 0]"] ;
316 -> 348 ;
349 [label="entropy = 0.0\nsamples = 14\nvalue = [14, 0, 0]"] ;
348 -> 349 ;
350 [label="fnlwgt <= 318244.0\nentropy = 0.8113\nsamples = 4\nvalue = [3, 1, 0]"] ;
348 -> 350 ;
351 [label="entropy = 0.0\nsamples = 1\nvalue = [0, 1, 0]"] ;
350 -> 351 ;
352 [label="entropy = 0.0\nsamples = 3\nvalue = [3, 0, 0]"] ;
350 -> 352 ;
353 [label="entropy = 0.0\nsamples = 2\nvalue = [0, 2, 0]"] ;
315 -> 353 ;
354 [label="entropy = 0.0\nsamples = 6\nvalue = [6, 0, 0]"] ;
314 -> 354 ;
355 [label="entropy = 0.0\nsamples = 9\nvalue = [9, 0, 0]"] ;
313 -> 355 ;
356 [label="entropy = 0.0\nsamples = 21\nvalue = [21, 0, 0]"] ;
306 -> 356 ;
357 [label="workclass= Local-gov <= 0.5\nentropy = 0.9035\nsamples = 47\nvalue = [32, 15, 0]"] ;
305 -> 357 ;
358 [label="age <= 48.5\nentropy = 0.9544\nsamples = 40\nvalue = [25, 15, 0]"] ;
357 -> 358 ;
359 [label="fnlwgt <= 163534.0\nentropy = 0.9183\nsamples = 9\nvalue = [3, 6, 0]"] ;
358 -> 359 ;
360 [label="sex= Male <= 0.5\nentropy = 1.0\nsamples = 6\nvalue = [3, 3, 0]"] ;
359 -> 360 ;
361 [label="entropy = 0.0\nsamples = 1\nvalue = [0, 1, 0]"] ;
360 -> 361 ;
362 [label="race= White <= 0.5\nentropy = 0.971\nsamples = 5\nvalue = [3, 2, 0]"] ;
360 -> 362 ;
363 [label="entropy = 0.0\nsamples = 1\nvalue = [0, 1, 0]"] ;
362 -> 363 ;
364 [label="fnlwgt <= 53971.0\nentropy = 0.8113\nsamples = 4\nvalue = [3, 1, 0]"] ;
362 -> 364 ;
365 [label="entropy = 0.0\nsamples = 1\nvalue = [0, 1, 0]"] ;
364 -> 365 ;
366 [label="entropy = 0.0\nsamples = 3\nvalue = [3, 0, 0]"] ;
364 -> 366 ;
367 [label="entropy = 0.0\nsamples = 3\nvalue = [0, 3, 0]"] ;
359 -> 367 ;
368 [label="age <= 60.5\nentropy = 0.8691\nsamples = 31\nvalue = [22, 9, 0]"] ;
358 -> 368 ;
369 [label="age <= 54.5\nentropy = 0.5917\nsamples = 21\nvalue = [18, 3, 0]"] ;
368 -> 369 ;
370 [label="education-num <= 13.5\nentropy = 0.8454\nsamples = 11\nvalue = [8, 3, 0]"] ;
369 -> 370 ;
371 [label="age <= 50.5\nentropy = 1.0\nsamples = 6\nvalue = [3, 3, 0]"] ;
370 -> 371 ;
372 [label="entropy = 0.0\nsamples = 2\nvalue = [2, 0, 0]"] ;
371 -> 372 ;
373 [label="fnlwgt <= 263339.5\nentropy = 0.8113\nsamples = 4\nvalue = [1, 3, 0]"] ;
371 -> 373 ;
374 [label="entropy = 0.0\nsamples = 3\nvalue = [0, 3, 0]"] ;
373 -> 374 ;
375 [label="entropy = 0.0\nsamples = 1\nvalue = [1, 0, 0]"] ;
373 -> 375 ;
376 [label="entropy = 0.0\nsamples = 5\nvalue = [5, 0, 0]"] ;
370 -> 376 ;
377 [label="entropy = 0.0\nsamples = 10\nvalue = [10, 0, 0]"] ;
369 -> 377 ;
378 [label="marital-status= Separated <= 0.5\nentropy = 0.971\nsamples = 10\nvalue = [4, 6, 0]"] ;
368 -> 378 ;
379 [label="marital-status= Married-AF-spouse <= 0.5\nentropy = 0.8113\nsamples = 8\nvalue = [2, 6, 0]"] ;
378 -> 379 ;
380 [label="entropy = 0.0\nsamples = 4\nvalue = [0, 4, 0]"] ;
379 -> 380 ;
381 [label="occupation= Exec-managerial <= 0.5\nentropy = 1.0\nsamples = 4\nvalue = [2, 2, 0]"] ;
379 -> 381 ;
382 [label="workclass=  <= 0.5\nentropy = 0.9183\nsamples = 3\nvalue = [1, 2, 0]"] ;
381 -> 382 ;
383 [label="entropy = 0.0\nsamples = 2\nvalue = [0, 2, 0]"] ;
382 -> 383 ;
384 [label="entropy = 0.0\nsamples = 1\nvalue = [1, 0, 0]"] ;
382 -> 384 ;
385 [label="entropy = 0.0\nsamples = 1\nvalue = [1, 0, 0]"] ;
381 -> 385 ;
386 [label="entropy = 0.0\nsamples = 2\nvalue = [2, 0, 0]"] ;
378 -> 386 ;
387 [label="entropy = 0.0\nsamples = 7\nvalue = [7, 0, 0]"] ;
357 -> 387 ;
388 [label="entropy = 0.0\nsamples = 24\nvalue = [24, 0, 0]"] ;
304 -> 388 ;
389 [label="occupation= Exec-managerial <= 0.5\nentropy = 0.8715\nsamples = 178\nvalue = [126, 52, 0]"] ;
289 -> 389 ;
390 [label="fnlwgt <= 85111.0\nentropy = 0.7793\nsamples = 130\nvalue = [100, 30, 0]"] ;
389 -> 390 ;
391 [label="hours-per-week <= 46.0\nentropy = 0.2975\nsamples = 19\nvalue = [18, 1, 0]"] ;
390 -> 391 ;
392 [label="fnlwgt <= 37734.0\nentropy = 1.0\nsamples = 2\nvalue = [1, 1, 0]"] ;
391 -> 392 ;
393 [label="entropy = 0.0\nsamples = 1\nvalue = [0, 1, 0]"] ;
392 -> 393 ;
394 [label="entropy = 0.0\nsamples = 1\nvalue = [1, 0, 0]"] ;
392 -> 394 ;
395 [label="entropy = 0.0\nsamples = 17\nvalue = [17, 0, 0]"] ;
391 -> 395 ;
396 [label="workclass= Federal-gov <= 0.5\nentropy = 0.8286\nsamples = 111\nvalue = [82, 29, 0]"] ;
390 -> 396 ;
397 [label="marital-status= Separated <= 0.5\nentropy = 0.8076\nsamples = 109\nvalue = [82, 27, 0]"] ;
396 -> 397 ;
398 [label="fnlwgt <= 226465.0\nentropy = 0.65\nsamples = 54\nvalue = [45, 9, 0]"] ;
397 -> 398 ;
399 [label="fnlwgt <= 219817.0\nentropy = 0.7401\nsamples = 43\nvalue = [34, 9, 0]"] ;
398 -> 399 ;
400 [label="native-country=  <= 0.5\nentropy = 0.6594\nsamples = 41\nvalue = [34, 7, 0]"] ;
399 -> 400 ;
401 [label="workclass= Private <= 0.5\nentropy = 0.5618\nsamples = 38\nvalue = [33, 5, 0]"] ;
400 -> 401 ;
402 [label="entropy = 0.0\nsamples = 13\nvalue = [13, 0, 0]"] ;
401 -> 402 ;
403 [label="fnlwgt <= 184887.0\nentropy = 0.7219\nsamples = 25\nvalue = [20, 5, 0]"] ;
401 -> 403 ;
404 [label="fnlwgt <= 168178.5\nentropy = 0.874\nsamples = 17\nvalue = [12, 5, 0]"] ;
403 -> 404 ;
405 [label="fnlwgt <= 87938.0\nentropy = 0.4138\nsamples = 12\nvalue = [11, 1, 0]"] ;
404 -> 405 ;
406 [label="entropy = 0.0\nsamples = 1\nvalue = [0, 1, 0]"] ;
405 -> 406 ;
407 [label="entropy = 0.0\nsamples = 11\nvalue = [11, 0, 0]"] ;
405 -> 407 ;
408 [label="capital-gain <= 3248.5\nentropy = 0.7219\nsamples = 5\nvalue = [1, 4, 0]"] ;
404 -> 408 ;
409 [label="entropy = 0.0\nsamples = 4\nvalue = [0, 4, 0]"] ;
408 -> 409 ;
410 [label="entropy = 0.0\nsamples = 1\nvalue = [1, 0, 0]"] ;
408 -> 410 ;
411 [label="entropy = 0.0\nsamples = 8\nvalue = [8, 0, 0]"] ;
403 -> 411 ;
412 [label="fnlwgt <= 161869.5\nentropy = 0.9183\nsamples = 3\nvalue = [1, 2, 0]"] ;
400 -> 412 ;
413 [label="entropy = 0.0\nsamples = 2\nvalue = [0, 2, 0]"] ;
412 -> 413 ;
414 [label="entropy = 0.0\nsamples = 1\nvalue = [1, 0, 0]"] ;
412 -> 414 ;
415 [label="entropy = 0.0\nsamples = 2\nvalue = [0, 2, 0]"] ;
399 -> 415 ;
416 [label="entropy = 0.0\nsamples = 11\nvalue = [11, 0, 0]"] ;
398 -> 416 ;
417 [label="age <= 50.0\nentropy = 0.9121\nsamples = 55\nvalue = [37, 18, 0]"] ;
397 -> 417 ;
418 [label="relationship= Not-in-family <= 0.5\nentropy = 0.8508\nsamples = 47\nvalue = [34, 13, 0]"] ;
417 -> 418 ;
419 [label="entropy = 0.0\nsamples = 4\nvalue = [4, 0, 0]"] ;
418 -> 419 ;
420 [label="hours-per-week <= 49.0\nentropy = 0.8841\nsamples = 43\nvalue = [30, 13, 0]"] ;
418 -> 420 ;
421 [label="education-num <= 13.5\nentropy = 0.5665\nsamples = 15\nvalue = [13, 2, 0]"] ;
420 -> 421 ;
422 [label="entropy = 0.0\nsamples = 12\nvalue = [12, 0, 0]"] ;
421 -> 422 ;
423 [label="hours-per-week <= 45.5\nentropy = 0.9183\nsamples = 3\nvalue = [1, 2, 0]"] ;
421 -> 423 ;
424 [label="entropy = 0.0\nsamples = 2\nvalue = [0, 2, 0]"] ;
423 -> 424 ;
425 [label="entropy = 0.0\nsamples = 1\nvalue = [1, 0, 0]"] ;
423 -> 425 ;
426 [label="fnlwgt <= 136799.5\nentropy = 0.9666\nsamples = 28\nvalue = [17, 11, 0]"] ;
420 -> 426 ;
427 [label="workclass= Local-gov <= 0.5\nentropy = 0.8113\nsamples = 4\nvalue = [1, 3, 0]"] ;
426 -> 427 ;
428 [label="entropy = 0.0\nsamples = 3\nvalue = [0, 3, 0]"] ;
427 -> 428 ;
429 [label="entropy = 0.0\nsamples = 1\nvalue = [1, 0, 0]"] ;
427 -> 429 ;
430 [label="fnlwgt <= 182366.0\nentropy = 0.9183\nsamples = 24\nvalue = [16, 8, 0]"] ;
426 -> 430 ;
431 [label="entropy = 0.0\nsamples = 4\nvalue = [4, 0, 0]"] ;
430 -> 431 ;
432 [label="native-country= United-Sta <= 0.5\nentropy = 0.971\nsamples = 20\nvalue = [12, 8, 0]"] ;
430 -> 432 ;
433 [label="entropy = 0.0\nsamples = 2\nvalue = [2, 0, 0]"] ;
432 -> 433 ;
434 [label="race= Other <= 0.5\nentropy = 0.9911\nsamples = 18\nvalue = [10, 8, 0]"] ;
432 -> 434 ;
435 [label="occupation= Sales <= 0.5\nentropy = 0.9774\nsamples = 17\nvalue = [10, 7, 0]"] ;
434 -> 435 ;
436 [label="occupation= Other-service <= 0.5\nentropy = 1.0\nsamples = 14\nvalue = [7, 7, 0]"] ;
435 -> 436 ;
437 [label="age <= 32.5\nentropy = 0.9957\nsamples = 13\nvalue = [6, 7, 0]"] ;
436 -> 437 ;
438 [label="fnlwgt <= 392539.0\nentropy = 0.8113\nsamples = 4\nvalue = [3, 1, 0]"] ;
437 -> 438 ;
439 [label="entropy = 0.0\nsamples = 3\nvalue = [3, 0, 0]"] ;
438 -> 439 ;
440 [label="entropy = 0.0\nsamples = 1\nvalue = [0, 1, 0]"] ;
438 -> 440 ;
441 [label="sex= Male <= 0.5\nentropy = 0.9183\nsamples = 9\nvalue = [3, 6, 0]"] ;
437 -> 441 ;
442 [label="education= Bachelors <= 0.5\nentropy = 0.971\nsamples = 5\nvalue = [3, 2, 0]"] ;
441 -> 442 ;
443 [label="entropy = 0.0\nsamples = 2\nvalue = [2, 0, 0]"] ;
442 -> 443 ;
444 [label="workclass= Local-gov <= 0.5\nentropy = 0.9183\nsamples = 3\nvalue = [1, 2, 0]"] ;
442 -> 444 ;
445 [label="entropy = 0.0\nsamples = 1\nvalue = [1, 0, 0]"] ;
444 -> 445 ;
446 [label="entropy = 0.0\nsamples = 2\nvalue = [0, 2, 0]"] ;
444 -> 446 ;
447 [label="entropy = 0.0\nsamples = 4\nvalue = [0, 4, 0]"] ;
441 -> 447 ;
448 [label="entropy = 0.0\nsamples = 1\nvalue = [1, 0, 0]"] ;
436 -> 448 ;
449 [label="entropy = 0.0\nsamples = 3\nvalue = [3, 0, 0]"] ;
435 -> 449 ;
450 [label="entropy = 0.0\nsamples = 1\nvalue = [0, 1, 0]"] ;
434 -> 450 ;
451 [label="occupation= Prof-specialty <= 0.5\nentropy = 0.9544\nsamples = 8\nvalue = [3, 5, 0]"] ;
417 -> 451 ;
452 [label="entropy = 0.0\nsamples = 4\nvalue = [0, 4, 0]"] ;
451 -> 452 ;
453 [label="fnlwgt <= 176009.5\nentropy = 0.8113\nsamples = 4\nvalue = [3, 1, 0]"] ;
451 -> 453 ;
454 [label="entropy = 0.0\nsamples = 1\nvalue = [0, 1, 0]"] ;
453 -> 454 ;
455 [label="entropy = 0.0\nsamples = 3\nvalue = [3, 0, 0]"] ;
453 -> 455 ;
456 [label="entropy = 0.0\nsamples = 2\nvalue = [0, 2, 0]"] ;
396 -> 456 ;
457 [label="age <= 41.5\nentropy = 0.995\nsamples = 48\nvalue = [26, 22, 0]"] ;
389 -> 457 ;
458 [label="age <= 30.5\nentropy = 0.8454\nsamples = 22\nvalue = [16, 6, 0]"] ;
457 -> 458 ;
459 [label="entropy = 0.0\nsamples = 2\nvalue = [0, 2, 0]"] ;
458 -> 459 ;
460 [label="fnlwgt <= 168488.5\nentropy = 0.7219\nsamples = 20\nvalue = [16, 4, 0]"] ;
458 -> 460 ;
461 [label="entropy = 0.0\nsamples = 7\nvalue = [7, 0, 0]"] ;
460 -> 461 ;
462 [label="sex= Male <= 0.5\nentropy = 0.8905\nsamples = 13\nvalue = [9, 4, 0]"] ;
460 -> 462 ;
463 [label="age <= 39.5\nentropy = 0.5436\nsamples = 8\nvalue = [7, 1, 0]"] ;
462 -> 463 ;
464 [label="entropy = 0.0\nsamples = 6\nvalue = [6, 0, 0]"] ;
463 -> 464 ;
465 [label="age <= 40.5\nentropy = 1.0\nsamples = 2\nvalue = [1, 1, 0]"] ;
463 -> 465 ;
466 [label="entropy = 0.0\nsamples = 1\nvalue = [0, 1, 0]"] ;
465 -> 466 ;
467 [label="entropy = 0.0\nsamples = 1\nvalue = [1, 0, 0]"] ;
465 -> 467 ;
468 [label="education= Bachelors <= 0.5\nentropy = 0.971\nsamples = 5\nvalue = [2, 3, 0]"] ;
462 -> 468 ;
469 [label="entropy = 0.0\nsamples = 2\nvalue = [0, 2, 0]"] ;
468 -> 469 ;
470 [label="fnlwgt <= 433588.0\nentropy = 0.9183\nsamples = 3\nvalue = [2, 1, 0]"] ;
468 -> 470 ;
471 [label="entropy = 0.0\nsamples = 2\nvalue = [2, 0, 0]"] ;
470 -> 471 ;
472 [label="entropy = 0.0\nsamples = 1\nvalue = [0, 1, 0]"] ;
470 -> 472 ;
473 [label="hours-per-week <= 59.0\nentropy = 0.9612\nsamples = 26\nvalue = [10, 16, 0]"] ;
457 -> 473 ;
474 [label="fnlwgt <= 213278.0\nentropy = 0.8631\nsamples = 21\nvalue = [6, 15, 0]"] ;
473 -> 474 ;
475 [label="age <= 52.5\nentropy = 0.9852\nsamples = 14\nvalue = [6, 8, 0]"] ;
474 -> 475 ;
476 [label="fnlwgt <= 187654.5\nentropy = 0.994\nsamples = 11\nvalue = [6, 5, 0]"] ;
475 -> 476 ;
477 [label="education-num <= 13.5\nentropy = 0.9544\nsamples = 8\nvalue = [3, 5, 0]"] ;
476 -> 477 ;
478 [label="workclass= Private <= 0.5\nentropy = 0.65\nsamples = 6\nvalue = [1, 5, 0]"] ;
477 -> 478 ;
479 [label="relationship= Not-in-family <= 0.5\nentropy = 1.0\nsamples = 2\nvalue = [1, 1, 0]"] ;
478 -> 479 ;
480 [label="entropy = 0.0\nsamples = 1\nvalue = [0, 1, 0]"] ;
479 -> 480 ;
481 [label="entropy = 0.0\nsamples = 1\nvalue = [1, 0, 0]"] ;
479 -> 481 ;
482 [label="entropy = 0.0\nsamples = 4\nvalue = [0, 4, 0]"] ;
478 -> 482 ;
483 [label="entropy = 0.0\nsamples = 2\nvalue = [2, 0, 0]"] ;
477 -> 483 ;
484 [label="entropy = 0.0\nsamples = 3\nvalue = [3, 0, 0]"] ;
476 -> 484 ;
485 [label="entropy = 0.0\nsamples = 3\nvalue = [0, 3, 0]"] ;
475 -> 485 ;
486 [label="entropy = 0.0\nsamples = 7\nvalue = [0, 7, 0]"] ;
474 -> 486 ;
487 [label="workclass= Self-emp-inc <= 0.5\nentropy = 0.7219\nsamples = 5\nvalue = [4, 1, 0]"] ;
473 -> 487 ;
488 [label="entropy = 0.0\nsamples = 4\nvalue = [4, 0, 0]"] ;
487 -> 488 ;
489 [label="entropy = 0.0\nsamples = 1\nvalue = [0, 1, 0]"] ;
487 -> 489 ;
490 [label="fnlwgt <= 318143.5\nentropy = 0.9819\nsamples = 38\nvalue = [16, 22, 0]"] ;
288 -> 490 ;
491 [label="marital-status= Separated <= 0.5\nentropy = 1.0\nsamples = 32\nvalue = [16, 16, 0]"] ;
490 -> 491 ;
492 [label="workclass= Self-emp-inc <= 0.5\nentropy = 0.8113\nsamples = 12\nvalue = [9, 3, 0]"] ;
491 -> 492 ;
493 [label="occupation= Sales <= 0.5\nentropy = 0.469\nsamples = 10\nvalue = [9, 1, 0]"] ;
492 -> 493 ;
494 [label="entropy = 0.0\nsamples = 9\nvalue = [9, 0, 0]"] ;
493 -> 494 ;
495 [label="entropy = 0.0\nsamples = 1\nvalue = [0, 1, 0]"] ;
493 -> 495 ;
496 [label="entropy = 0.0\nsamples = 2\nvalue = [0, 2, 0]"] ;
492 -> 496 ;
497 [label="age <= 32.0\nentropy = 0.9341\nsamples = 20\nvalue = [7, 13, 0]"] ;
491 -> 497 ;
498 [label="entropy = 0.0\nsamples = 2\nvalue = [2, 0, 0]"] ;
497 -> 498 ;
499 [label="native-country= France <= 0.5\nentropy = 0.8524\nsamples = 18\nvalue = [5, 13, 0]"] ;
497 -> 499 ;
500 [label="hours-per-week <= 51.0\nentropy = 0.6962\nsamples = 16\nvalue = [3, 13, 0]"] ;
499 -> 500 ;
501 [label="race= Black <= 0.5\nentropy = 0.8113\nsamples = 12\nvalue = [3, 9, 0]"] ;
500 -> 501 ;
502 [label="workclass= Private <= 0.5\nentropy = 0.684\nsamples = 11\nvalue = [2, 9, 0]"] ;
501 -> 502 ;
503 [label="entropy = 0.0\nsamples = 5\nvalue = [0, 5, 0]"] ;
502 -> 503 ;
504 [label="age <= 54.0\nentropy = 0.9183\nsamples = 6\nvalue = [2, 4, 0]"] ;
502 -> 504 ;
505 [label="fnlwgt <= 231150.0\nentropy = 0.7219\nsamples = 5\nvalue = [1, 4, 0]"] ;
504 -> 505 ;
506 [label="entropy = 0.0\nsamples = 3\nvalue = [0, 3, 0]"] ;
505 -> 506 ;
507 [label="education-num <= 15.5\nentropy = 1.0\nsamples = 2\nvalue = [1, 1, 0]"] ;
505 -> 507 ;
508 [label="entropy = 0.0\nsamples = 1\nvalue = [1, 0, 0]"] ;
507 -> 508 ;
509 [label="entropy = 0.0\nsamples = 1\nvalue = [0, 1, 0]"] ;
507 -> 509 ;
510 [label="entropy = 0.0\nsamples = 1\nvalue = [1, 0, 0]"] ;
504 -> 510 ;
511 [label="entropy = 0.0\nsamples = 1\nvalue = [1, 0, 0]"] ;
501 -> 511 ;
512 [label="entropy = 0.0\nsamples = 4\nvalue = [0, 4, 0]"] ;
500 -> 512 ;
513 [label="entropy = 0.0\nsamples = 2\nvalue = [2, 0, 0]"] ;
499 -> 513 ;
514 [label="entropy = 0.0\nsamples = 6\nvalue = [0, 6, 0]"] ;
490 -> 514 ;
515 [label="age <= 20.5\nentropy = 0.2399\nsamples = 76\nvalue = [3, 73, 0]"] ;
1 -> 515 ;
516 [label="entropy = 0.0\nsamples = 3\nvalue = [3, 0, 0]"] ;
515 -> 516 ;
517 [label="entropy = 0.0\nsamples = 73\nvalue = [0, 73, 0]"] ;
515 -> 517 ;
518 [label="capital-gain <= 5095.5\nentropy = 0.9923\nsamples = 3537\nvalue = [1951, 1586, 0]"] ;
0 -> 518 [labeldistance=2.5, labelangle=-45, headlabel="False"] ;
519 [label="education-num <= 11.5\nentropy = 0.9721\nsamples = 3251\nvalue = [1944, 1307, 0]"] ;
518 -> 519 ;
520 [label="education-num <= 8.5\nentropy = 0.877\nsamples = 2256\nvalue = [1587, 669, 0]"] ;
519 -> 520 ;
521 [label="age <= 33.5\nentropy = 0.4973\nsamples = 394\nvalue = [351, 43, 0]"] ;
520 -> 521 ;
522 [label="occupation= Tech-support <= 0.5\nentropy = 0.1537\nsamples = 90\nvalue = [88, 2, 0]"] ;
521 -> 522 ;
523 [label="workclass= Self-emp-inc <= 0.5\nentropy = 0.0897\nsamples = 88\nvalue = [87, 1, 0]"] ;
522 -> 523 ;
524 [label="entropy = 0.0\nsamples = 86\nvalue = [86, 0, 0]"] ;
523 -> 524 ;
525 [label="education= 11th <= 0.5\nentropy = 1.0\nsamples = 2\nvalue = [1, 1, 0]"] ;
523 -> 525 ;
526 [label="entropy = 0.0\nsamples = 1\nvalue = [1, 0, 0]"] ;
525 -> 526 ;
527 [label="entropy = 0.0\nsamples = 1\nvalue = [0, 1, 0]"] ;
525 -> 527 ;
528 [label="education= 10th <= 0.5\nentropy = 1.0\nsamples = 2\nvalue = [1, 1, 0]"] ;
522 -> 528 ;
529 [label="entropy = 0.0\nsamples = 1\nvalue = [1, 0, 0]"] ;
528 -> 529 ;
530 [label="entropy = 0.0\nsamples = 1\nvalue = [0, 1, 0]"] ;
528 -> 530 ;
531 [label="hours-per-week <= 27.5\nentropy = 0.5706\nsamples = 304\nvalue = [263, 41, 0]"] ;
521 -> 531 ;
532 [label="entropy = 0.0\nsamples = 35\nvalue = [35, 0, 0]"] ;
531 -> 532 ;
533 [label="occupation= Exec-managerial <= 0.5\nentropy = 0.6159\nsamples = 269\nvalue = [228, 41, 0]"] ;
531 -> 533 ;
534 [label="fnlwgt <= 157734.5\nentropy = 0.5844\nsamples = 257\nvalue = [221, 36, 0]"] ;
533 -> 534 ;
535 [label="fnlwgt <= 120942.0\nentropy = 0.7526\nsamples = 88\nvalue = [69, 19, 0]"] ;
534 -> 535 ;
536 [label="capital-loss <= 742.5\nentropy = 0.5374\nsamples = 57\nvalue = [50, 7, 0]"] ;
535 -> 536 ;
537 [label="native-country= China <= 0.5\nentropy = 0.4451\nsamples = 54\nvalue = [49, 5, 0]"] ;
536 -> 537 ;
538 [label="native-country= Cambodia <= 0.5\nentropy = 0.386\nsamples = 53\nvalue = [49, 4, 0]"] ;
537 -> 538 ;
539 [label="hours-per-week <= 49.0\nentropy = 0.3182\nsamples = 52\nvalue = [49, 3, 0]"] ;
538 -> 539 ;
540 [label="age <= 41.5\nentropy = 0.1793\nsamples = 37\nvalue = [36, 1, 0]"] ;
539 -> 540 ;
541 [label="education= 10th <= 0.5\nentropy = 0.5917\nsamples = 7\nvalue = [6, 1, 0]"] ;
540 -> 541 ;
542 [label="entropy = 0.0\nsamples = 6\nvalue = [6, 0, 0]"] ;
541 -> 542 ;
543 [label="entropy = 0.0\nsamples = 1\nvalue = [0, 1, 0]"] ;
541 -> 543 ;
544 [label="entropy = 0.0\nsamples = 30\nvalue = [30, 0, 0]"] ;
540 -> 544 ;
545 [label="occupation= Transport-moving <= 0.5\nentropy = 0.5665\nsamples = 15\nvalue = [13, 2, 0]"] ;
539 -> 545 ;
546 [label="workclass= Self-emp-not-inc <= 0.5\nentropy = 0.3712\nsamples = 14\nvalue = [13, 1, 0]"] ;
545 -> 546 ;
547 [label="entropy = 0.0\nsamples = 11\nvalue = [11, 0, 0]"] ;
546 -> 547 ;
548 [label="occupation= Sales <= 0.5\nentropy = 0.9183\nsamples = 3\nvalue = [2, 1, 0]"] ;
546 -> 548 ;
549 [label="entropy = 0.0\nsamples = 1\nvalue = [0, 1, 0]"] ;
548 -> 549 ;
550 [label="entropy = 0.0\nsamples = 2\nvalue = [2, 0, 0]"] ;
548 -> 550 ;
551 [label="entropy = 0.0\nsamples = 1\nvalue = [0, 1, 0]"] ;
545 -> 551 ;
552 [label="entropy = 0.0\nsamples = 1\nvalue = [0, 1, 0]"] ;
538 -> 552 ;
553 [label="entropy = 0.0\nsamples = 1\nvalue = [0, 1, 0]"] ;
537 -> 553 ;
554 [label="education= 11th <= 0.5\nentropy = 0.9183\nsamples = 3\nvalue = [1, 2, 0]"] ;
536 -> 554 ;
555 [label="entropy = 0.0\nsamples = 2\nvalue = [0, 2, 0]"] ;
554 -> 555 ;
556 [label="entropy = 0.0\nsamples = 1\nvalue = [1, 0, 0]"] ;
554 -> 556 ;
557 [label="fnlwgt <= 122708.0\nentropy = 0.9629\nsamples = 31\nvalue = [19, 12, 0]"] ;
535 -> 557 ;
558 [label="entropy = 0.0\nsamples = 3\nvalue = [0, 3, 0]"] ;
557 -> 558 ;
559 [label="race= Black <= 0.5\nentropy = 0.9059\nsamples = 28\nvalue = [19, 9, 0]"] ;
557 -> 559 ;
560 [label="sex= Female <= 0.5\nentropy = 0.9427\nsamples = 25\nvalue = [16, 9, 0]"] ;
559 -> 560 ;
561 [label="occupation= Sales <= 0.5\nentropy = 0.9183\nsamples = 24\nvalue = [16, 8, 0]"] ;
560 -> 561 ;
562 [label="workclass= Self-emp-inc <= 0.5\nentropy = 0.8865\nsamples = 23\nvalue = [16, 7, 0]"] ;
561 -> 562 ;
563 [label="fnlwgt <= 130115.0\nentropy = 0.8454\nsamples = 22\nvalue = [16, 6, 0]"] ;
562 -> 563 ;
564 [label="entropy = 0.0\nsamples = 5\nvalue = [5, 0, 0]"] ;
563 -> 564 ;
565 [label="hours-per-week <= 55.0\nentropy = 0.9367\nsamples = 17\nvalue = [11, 6, 0]"] ;
563 -> 565 ;
566 [label="fnlwgt <= 135304.0\nentropy = 0.8366\nsamples = 15\nvalue = [11, 4, 0]"] ;
565 -> 566 ;
567 [label="entropy = 0.0\nsamples = 2\nvalue = [0, 2, 0]"] ;
566 -> 567 ;
568 [label="age <= 45.0\nentropy = 0.6194\nsamples = 13\nvalue = [11, 2, 0]"] ;
566 -> 568 ;
569 [label="fnlwgt <= 144003.5\nentropy = 0.971\nsamples = 5\nvalue = [3, 2, 0]"] ;
568 -> 569 ;
570 [label="entropy = 0.0\nsamples = 3\nvalue = [3, 0, 0]"] ;
569 -> 570 ;
571 [label="entropy = 0.0\nsamples = 2\nvalue = [0, 2, 0]"] ;
569 -> 571 ;
572 [label="entropy = 0.0\nsamples = 8\nvalue = [8, 0, 0]"] ;
568 -> 572 ;
573 [label="entropy = 0.0\nsamples = 2\nvalue = [0, 2, 0]"] ;
565 -> 573 ;
574 [label="entropy = 0.0\nsamples = 1\nvalue = [0, 1, 0]"] ;
562 -> 574 ;
575 [label="entropy = 0.0\nsamples = 1\nvalue = [0, 1, 0]"] ;
561 -> 575 ;
576 [label="entropy = 0.0\nsamples = 1\nvalue = [0, 1, 0]"] ;
560 -> 576 ;
577 [label="entropy = 0.0\nsamples = 3\nvalue = [3, 0, 0]"] ;
559 -> 577 ;
578 [label="race= Black <= 0.5\nentropy = 0.4709\nsamples = 169\nvalue = [152, 17, 0]"] ;
534 -> 578 ;
579 [label="occupation= Machine-op-inspct <= 0.5\nentropy = 0.3819\nsamples = 148\nvalue = [137, 11, 0]"] ;
578 -> 579 ;
580 [label="occupation= Sales <= 0.5\nentropy = 0.2812\nsamples = 123\nvalue = [117, 6, 0]"] ;
579 -> 580 ;
581 [label="education-num <= 5.5\nentropy = 0.2136\nsamples = 118\nvalue = [114, 4, 0]"] ;
580 -> 581 ;
582 [label="entropy = 0.0\nsamples = 64\nvalue = [64, 0, 0]"] ;
581 -> 582 ;
583 [label="education= 11th <= 0.5\nentropy = 0.3809\nsamples = 54\nvalue = [50, 4, 0]"] ;
581 -> 583 ;
584 [label="fnlwgt <= 324670.0\nentropy = 0.5226\nsamples = 34\nvalue = [30, 4, 0]"] ;
583 -> 584 ;
585 [label="occupation= Transport-moving <= 0.5\nentropy = 0.3621\nsamples = 29\nvalue = [27, 2, 0]"] ;
584 -> 585 ;
586 [label="entropy = 0.0\nsamples = 19\nvalue = [19, 0, 0]"] ;
585 -> 586 ;
587 [label="fnlwgt <= 182172.5\nentropy = 0.7219\nsamples = 10\nvalue = [8, 2, 0]"] ;
585 -> 587 ;
588 [label="fnlwgt <= 177764.0\nentropy = 1.0\nsamples = 4\nvalue = [2, 2, 0]"] ;
587 -> 588 ;
589 [label="entropy = 0.0\nsamples = 2\nvalue = [2, 0, 0]"] ;
588 -> 589 ;
590 [label="entropy = 0.0\nsamples = 2\nvalue = [0, 2, 0]"] ;
588 -> 590 ;
591 [label="entropy = 0.0\nsamples = 6\nvalue = [6, 0, 0]"] ;
587 -> 591 ;
592 [label="native-country= United-Sta <= 0.5\nentropy = 0.971\nsamples = 5\nvalue = [3, 2, 0]"] ;
584 -> 592 ;
593 [label="entropy = 0.0\nsamples = 2\nvalue = [2, 0, 0]"] ;
592 -> 593 ;
594 [label="fnlwgt <= 377512.5\nentropy = 0.9183\nsamples = 3\nvalue = [1, 2, 0]"] ;
592 -> 594 ;
595 [label="entropy = 0.0\nsamples = 2\nvalue = [0, 2, 0]"] ;
594 -> 595 ;
596 [label="entropy = 0.0\nsamples = 1\nvalue = [1, 0, 0]"] ;
594 -> 596 ;
597 [label="entropy = 0.0\nsamples = 20\nvalue = [20, 0, 0]"] ;
583 -> 597 ;
598 [label="age <= 50.5\nentropy = 0.971\nsamples = 5\nvalue = [3, 2, 0]"] ;
580 -> 598 ;
599 [label="entropy = 0.0\nsamples = 2\nvalue = [2, 0, 0]"] ;
598 -> 599 ;
600 [label="hours-per-week <= 35.0\nentropy = 0.9183\nsamples = 3\nvalue = [1, 2, 0]"] ;
598 -> 600 ;
601 [label="entropy = 0.0\nsamples = 1\nvalue = [1, 0, 0]"] ;
600 -> 601 ;
602 [label="entropy = 0.0\nsamples = 2\nvalue = [0, 2, 0]"] ;
600 -> 602 ;
603 [label="age <= 48.0\nentropy = 0.7219\nsamples = 25\nvalue = [20, 5, 0]"] ;
579 -> 603 ;
604 [label="fnlwgt <= 295470.0\nentropy = 0.9403\nsamples = 14\nvalue = [9, 5, 0]"] ;
603 -> 604 ;
605 [label="education= 5th-6th <= 0.5\nentropy = 1.0\nsamples = 10\nvalue = [5, 5, 0]"] ;
604 -> 605 ;
606 [label="age <= 36.0\nentropy = 0.9544\nsamples = 8\nvalue = [3, 5, 0]"] ;
605 -> 606 ;
607 [label="entropy = 0.0\nsamples = 2\nvalue = [2, 0, 0]"] ;
606 -> 607 ;
608 [label="fnlwgt <= 172109.0\nentropy = 0.65\nsamples = 6\nvalue = [1, 5, 0]"] ;
606 -> 608 ;
609 [label="entropy = 0.0\nsamples = 1\nvalue = [1, 0, 0]"] ;
608 -> 609 ;
610 [label="entropy = 0.0\nsamples = 5\nvalue = [0, 5, 0]"] ;
608 -> 610 ;
611 [label="entropy = 0.0\nsamples = 2\nvalue = [2, 0, 0]"] ;
605 -> 611 ;
612 [label="entropy = 0.0\nsamples = 4\nvalue = [4, 0, 0]"] ;
604 -> 612 ;
613 [label="entropy = 0.0\nsamples = 11\nvalue = [11, 0, 0]"] ;
603 -> 613 ;
614 [label="fnlwgt <= 242171.0\nentropy = 0.8631\nsamples = 21\nvalue = [15, 6, 0]"] ;
578 -> 614 ;
615 [label="occupation= Transport-moving <= 0.5\nentropy = 0.4138\nsamples = 12\nvalue = [11, 1, 0]"] ;
614 -> 615 ;
616 [label="entropy = 0.0\nsamples = 9\nvalue = [9, 0, 0]"] ;
615 -> 616 ;
617 [label="fnlwgt <= 213365.5\nentropy = 0.9183\nsamples = 3\nvalue = [2, 1, 0]"] ;
615 -> 617 ;
618 [label="entropy = 0.0\nsamples = 1\nvalue = [0, 1, 0]"] ;
617 -> 618 ;
619 [label="entropy = 0.0\nsamples = 2\nvalue = [2, 0, 0]"] ;
617 -> 619 ;
620 [label="age <= 39.5\nentropy = 0.9911\nsamples = 9\nvalue = [4, 5, 0]"] ;
614 -> 620 ;
621 [label="entropy = 0.0\nsamples = 3\nvalue = [3, 0, 0]"] ;
620 -> 621 ;
622 [label="occupation= Transport-moving <= 0.5\nentropy = 0.65\nsamples = 6\nvalue = [1, 5, 0]"] ;
620 -> 622 ;
623 [label="entropy = 0.0\nsamples = 4\nvalue = [0, 4, 0]"] ;
622 -> 623 ;
624 [label="education-num <= 6.5\nentropy = 1.0\nsamples = 2\nvalue = [1, 1, 0]"] ;
622 -> 624 ;
625 [label="entropy = 0.0\nsamples = 1\nvalue = [0, 1, 0]"] ;
624 -> 625 ;
626 [label="entropy = 0.0\nsamples = 1\nvalue = [1, 0, 0]"] ;
624 -> 626 ;
627 [label="hours-per-week <= 57.5\nentropy = 0.9799\nsamples = 12\nvalue = [7, 5, 0]"] ;
533 -> 627 ;
628 [label="hours-per-week <= 42.5\nentropy = 1.0\nsamples = 10\nvalue = [5, 5, 0]"] ;
627 -> 628 ;
629 [label="fnlwgt <= 384516.0\nentropy = 0.7219\nsamples = 5\nvalue = [4, 1, 0]"] ;
628 -> 629 ;
630 [label="entropy = 0.0\nsamples = 4\nvalue = [4, 0, 0]"] ;
629 -> 630 ;
631 [label="entropy = 0.0\nsamples = 1\nvalue = [0, 1, 0]"] ;
629 -> 631 ;
632 [label="fnlwgt <= 263759.5\nentropy = 0.7219\nsamples = 5\nvalue = [1, 4, 0]"] ;
628 -> 632 ;
633 [label="entropy = 0.0\nsamples = 4\nvalue = [0, 4, 0]"] ;
632 -> 633 ;
634 [label="entropy = 0.0\nsamples = 1\nvalue = [1, 0, 0]"] ;
632 -> 634 ;
635 [label="entropy = 0.0\nsamples = 2\nvalue = [2, 0, 0]"] ;
627 -> 635 ;
636 [label="age <= 29.5\nentropy = 0.9211\nsamples = 1862\nvalue = [1236, 626, 0]"] ;
520 -> 636 ;
637 [label="age <= 23.5\nentropy = 0.5408\nsamples = 250\nvalue = [219, 31, 0]"] ;
636 -> 637 ;
638 [label="entropy = 0.0\nsamples = 44\nvalue = [44, 0, 0]"] ;
637 -> 638 ;
639 [label="capital-loss <= 1794.0\nentropy = 0.6111\nsamples = 206\nvalue = [175, 31, 0]"] ;
637 -> 639 ;
640 [label="fnlwgt <= 294813.0\nentropy = 0.5824\nsamples = 201\nvalue = [173, 28, 0]"] ;
639 -> 640 ;
641 [label="fnlwgt <= 125625.0\nentropy = 0.6315\nsamples = 170\nvalue = [143, 27, 0]"] ;
640 -> 641 ;
642 [label="occupation= Prof-specialty <= 0.5\nentropy = 0.4395\nsamples = 66\nvalue = [60, 6, 0]"] ;
641 -> 642 ;
643 [label="fnlwgt <= 71829.0\nentropy = 0.3912\nsamples = 65\nvalue = [60, 5, 0]"] ;
642 -> 643 ;
644 [label="fnlwgt <= 60754.5\nentropy = 0.6253\nsamples = 32\nvalue = [27, 5, 0]"] ;
643 -> 644 ;
645 [label="fnlwgt <= 39075.0\nentropy = 0.4798\nsamples = 29\nvalue = [26, 3, 0]"] ;
644 -> 645 ;
646 [label="age <= 28.5\nentropy = 0.7793\nsamples = 13\nvalue = [10, 3, 0]"] ;
645 -> 646 ;
647 [label="hours-per-week <= 37.5\nentropy = 0.9544\nsamples = 8\nvalue = [5, 3, 0]"] ;
646 -> 647 ;
648 [label="entropy = 0.0\nsamples = 2\nvalue = [2, 0, 0]"] ;
647 -> 648 ;
649 [label="hours-per-week <= 55.0\nentropy = 1.0\nsamples = 6\nvalue = [3, 3, 0]"] ;
647 -> 649 ;
650 [label="occupation= Exec-managerial <= 0.5\nentropy = 0.8113\nsamples = 4\nvalue = [1, 3, 0]"] ;
649 -> 650 ;
651 [label="entropy = 0.0\nsamples = 3\nvalue = [0, 3, 0]"] ;
650 -> 651 ;
652 [label="entropy = 0.0\nsamples = 1\nvalue = [1, 0, 0]"] ;
650 -> 652 ;
653 [label="entropy = 0.0\nsamples = 2\nvalue = [2, 0, 0]"] ;
649 -> 653 ;
654 [label="entropy = 0.0\nsamples = 5\nvalue = [5, 0, 0]"] ;
646 -> 654 ;
655 [label="entropy = 0.0\nsamples = 16\nvalue = [16, 0, 0]"] ;
645 -> 655 ;
656 [label="workclass= Self-emp-inc <= 0.5\nentropy = 0.9183\nsamples = 3\nvalue = [1, 2, 0]"] ;
644 -> 656 ;
657 [label="entropy = 0.0\nsamples = 2\nvalue = [0, 2, 0]"] ;
656 -> 657 ;
658 [label="entropy = 0.0\nsamples = 1\nvalue = [1, 0, 0]"] ;
656 -> 658 ;
659 [label="entropy = 0.0\nsamples = 33\nvalue = [33, 0, 0]"] ;
643 -> 659 ;
660 [label="entropy = 0.0\nsamples = 1\nvalue = [0, 1, 0]"] ;
642 -> 660 ;
661 [label="hours-per-week <= 71.0\nentropy = 0.7258\nsamples = 104\nvalue = [83, 21, 0]"] ;
641 -> 661 ;
662 [label="fnlwgt <= 132780.0\nentropy = 0.6936\nsamples = 102\nvalue = [83, 19, 0]"] ;
661 -> 662 ;
663 [label="occupation= Craft-repair <= 0.5\nentropy = 0.9852\nsamples = 7\nvalue = [3, 4, 0]"] ;
662 -> 663 ;
664 [label="age <= 26.5\nentropy = 0.7219\nsamples = 5\nvalue = [1, 4, 0]"] ;
663 -> 664 ;
665 [label="entropy = 0.0\nsamples = 1\nvalue = [1, 0, 0]"] ;
664 -> 665 ;
666 [label="entropy = 0.0\nsamples = 4\nvalue = [0, 4, 0]"] ;
664 -> 666 ;
667 [label="entropy = 0.0\nsamples = 2\nvalue = [2, 0, 0]"] ;
663 -> 667 ;
668 [label="occupation= Sales <= 0.5\nentropy = 0.6292\nsamples = 95\nvalue = [80, 15, 0]"] ;
662 -> 668 ;
669 [label="occupation= Tech-support <= 0.5\nentropy = 0.5349\nsamples = 82\nvalue = [72, 10, 0]"] ;
668 -> 669 ;
670 [label="native-country= Canada <= 0.5\nentropy = 0.473\nsamples = 79\nvalue = [71, 8, 0]"] ;
669 -> 670 ;
671 [label="fnlwgt <= 243947.5\nentropy = 0.4356\nsamples = 78\nvalue = [71, 7, 0]"] ;
670 -> 671 ;
672 [label="fnlwgt <= 239753.0\nentropy = 0.4929\nsamples = 65\nvalue = [58, 7, 0]"] ;
671 -> 672 ;
673 [label="native-country= Mexico <= 0.5\nentropy = 0.3999\nsamples = 63\nvalue = [58, 5, 0]"] ;
672 -> 673 ;
674 [label="hours-per-week <= 42.0\nentropy = 0.3492\nsamples = 61\nvalue = [57, 4, 0]"] ;
673 -> 674 ;
675 [label="workclass= Self-emp-inc <= 0.5\nentropy = 0.4942\nsamples = 37\nvalue = [33, 4, 0]"] ;
674 -> 675 ;
676 [label="age <= 28.5\nentropy = 0.4138\nsamples = 36\nvalue = [33, 3, 0]"] ;
675 -> 676 ;
677 [label="fnlwgt <= 153165.5\nentropy = 0.2223\nsamples = 28\nvalue = [27, 1, 0]"] ;
676 -> 677 ;
678 [label="education= Some-college <= 0.5\nentropy = 0.9183\nsamples = 3\nvalue = [2, 1, 0]"] ;
677 -> 678 ;
679 [label="entropy = 0.0\nsamples = 2\nvalue = [2, 0, 0]"] ;
678 -> 679 ;
680 [label="entropy = 0.0\nsamples = 1\nvalue = [0, 1, 0]"] ;
678 -> 680 ;
681 [label="entropy = 0.0\nsamples = 25\nvalue = [25, 0, 0]"] ;
677 -> 681 ;
682 [label="fnlwgt <= 203789.5\nentropy = 0.8113\nsamples = 8\nvalue = [6, 2, 0]"] ;
676 -> 682 ;
683 [label="occupation= Machine-op-inspct <= 0.5\nentropy = 0.5917\nsamples = 7\nvalue = [6, 1, 0]"] ;
682 -> 683 ;
684 [label="entropy = 0.0\nsamples = 5\nvalue = [5, 0, 0]"] ;
683 -> 684 ;
685 [label="hours-per-week <= 39.0\nentropy = 1.0\nsamples = 2\nvalue = [1, 1, 0]"] ;
683 -> 685 ;
686 [label="entropy = 0.0\nsamples = 1\nvalue = [1, 0, 0]"] ;
685 -> 686 ;
687 [label="entropy = 0.0\nsamples = 1\nvalue = [0, 1, 0]"] ;
685 -> 687 ;
688 [label="entropy = 0.0\nsamples = 1\nvalue = [0, 1, 0]"] ;
682 -> 688 ;
689 [label="entropy = 0.0\nsamples = 1\nvalue = [0, 1, 0]"] ;
675 -> 689 ;
690 [label="entropy = 0.0\nsamples = 24\nvalue = [24, 0, 0]"] ;
674 -> 690 ;
691 [label="fnlwgt <= 187675.5\nentropy = 1.0\nsamples = 2\nvalue = [1, 1, 0]"] ;
673 -> 691 ;
692 [label="entropy = 0.0\nsamples = 1\nvalue = [1, 0, 0]"] ;
691 -> 692 ;
693 [label="entropy = 0.0\nsamples = 1\nvalue = [0, 1, 0]"] ;
691 -> 693 ;
694 [label="entropy = 0.0\nsamples = 2\nvalue = [0, 2, 0]"] ;
672 -> 694 ;
695 [label="entropy = 0.0\nsamples = 13\nvalue = [13, 0, 0]"] ;
671 -> 695 ;
696 [label="entropy = 0.0\nsamples = 1\nvalue = [0, 1, 0]"] ;
670 -> 696 ;
697 [label="age <= 27.5\nentropy = 0.9183\nsamples = 3\nvalue = [1, 2, 0]"] ;
669 -> 697 ;
698 [label="entropy = 0.0\nsamples = 2\nvalue = [0, 2, 0]"] ;
697 -> 698 ;
699 [label="entropy = 0.0\nsamples = 1\nvalue = [1, 0, 0]"] ;
697 -> 699 ;
700 [label="fnlwgt <= 199871.5\nentropy = 0.9612\nsamples = 13\nvalue = [8, 5, 0]"] ;
668 -> 700 ;
701 [label="hours-per-week <= 42.0\nentropy = 0.7219\nsamples = 5\nvalue = [1, 4, 0]"] ;
700 -> 701 ;
702 [label="hours-per-week <= 33.0\nentropy = 1.0\nsamples = 2\nvalue = [1, 1, 0]"] ;
701 -> 702 ;
703 [label="entropy = 0.0\nsamples = 1\nvalue = [0, 1, 0]"] ;
702 -> 703 ;
704 [label="entropy = 0.0\nsamples = 1\nvalue = [1, 0, 0]"] ;
702 -> 704 ;
705 [label="entropy = 0.0\nsamples = 3\nvalue = [0, 3, 0]"] ;
701 -> 705 ;
706 [label="age <= 26.5\nentropy = 0.5436\nsamples = 8\nvalue = [7, 1, 0]"] ;
700 -> 706 ;
707 [label="education= HS-grad <= 0.5\nentropy = 1.0\nsamples = 2\nvalue = [1, 1, 0]"] ;
706 -> 707 ;
708 [label="entropy = 0.0\nsamples = 1\nvalue = [1, 0, 0]"] ;
707 -> 708 ;
709 [label="entropy = 0.0\nsamples = 1\nvalue = [0, 1, 0]"] ;
707 -> 709 ;
710 [label="entropy = 0.0\nsamples = 6\nvalue = [6, 0, 0]"] ;
706 -> 710 ;
711 [label="entropy = 0.0\nsamples = 2\nvalue = [0, 2, 0]"] ;
661 -> 711 ;
712 [label="occupation= Transport-moving <= 0.5\nentropy = 0.2056\nsamples = 31\nvalue = [30, 1, 0]"] ;
640 -> 712 ;
713 [label="entropy = 0.0\nsamples = 27\nvalue = [27, 0, 0]"] ;
712 -> 713 ;
714 [label="fnlwgt <= 413641.5\nentropy = 0.8113\nsamples = 4\nvalue = [3, 1, 0]"] ;
712 -> 714 ;
715 [label="entropy = 0.0\nsamples = 3\nvalue = [3, 0, 0]"] ;
714 -> 715 ;
716 [label="entropy = 0.0\nsamples = 1\nvalue = [0, 1, 0]"] ;
714 -> 716 ;
717 [label="age <= 27.0\nentropy = 0.971\nsamples = 5\nvalue = [2, 3, 0]"] ;
639 -> 717 ;
718 [label="entropy = 0.0\nsamples = 2\nvalue = [2, 0, 0]"] ;
717 -> 718 ;
719 [label="entropy = 0.0\nsamples = 3\nvalue = [0, 3, 0]"] ;
717 -> 719 ;
720 [label="capital-loss <= 1846.0\nentropy = 0.95\nsamples = 1612\nvalue = [1017, 595, 0]"] ;
636 -> 720 ;
721 [label="hours-per-week <= 34.5\nentropy = 0.9359\nsamples = 1548\nvalue = [1003, 545, 0]"] ;
720 -> 721 ;
722 [label="relationship= Wife <= 0.5\nentropy = 0.6113\nsamples = 166\nvalue = [141, 25, 0]"] ;
721 -> 722 ;
723 [label="education-num <= 9.5\nentropy = 0.396\nsamples = 115\nvalue = [106, 9, 0]"] ;
722 -> 723 ;
724 [label="occupation= Handlers-cleaners <= 0.5\nentropy = 0.1119\nsamples = 67\nvalue = [66, 1, 0]"] ;
723 -> 724 ;
725 [label="entropy = 0.0\nsamples = 63\nvalue = [63, 0, 0]"] ;
724 -> 725 ;
726 [label="race= Black <= 0.5\nentropy = 0.8113\nsamples = 4\nvalue = [3, 1, 0]"] ;
724 -> 726 ;
727 [label="entropy = 0.0\nsamples = 2\nvalue = [2, 0, 0]"] ;
726 -> 727 ;
728 [label="fnlwgt <= 208586.0\nentropy = 1.0\nsamples = 2\nvalue = [1, 1, 0]"] ;
726 -> 728 ;
729 [label="entropy = 0.0\nsamples = 1\nvalue = [0, 1, 0]"] ;
728 -> 729 ;
730 [label="entropy = 0.0\nsamples = 1\nvalue = [1, 0, 0]"] ;
728 -> 730 ;
731 [label="fnlwgt <= 430210.0\nentropy = 0.65\nsamples = 48\nvalue = [40, 8, 0]"] ;
723 -> 731 ;
732 [label="occupation= Tech-support <= 0.5\nentropy = 0.5586\nsamples = 46\nvalue = [40, 6, 0]"] ;
731 -> 732 ;
733 [label="fnlwgt <= 200372.0\nentropy = 0.4465\nsamples = 43\nvalue = [39, 4, 0]"] ;
732 -> 733 ;
734 [label="fnlwgt <= 172446.5\nentropy = 0.6052\nsamples = 27\nvalue = [23, 4, 0]"] ;
733 -> 734 ;
735 [label="occupation= Transport-moving <= 0.5\nentropy = 0.4138\nsamples = 24\nvalue = [22, 2, 0]"] ;
734 -> 735 ;
736 [label="occupation= Sales <= 0.5\nentropy = 0.258\nsamples = 23\nvalue = [22, 1, 0]"] ;
735 -> 736 ;
737 [label="entropy = 0.0\nsamples = 20\nvalue = [20, 0, 0]"] ;
736 -> 737 ;
738 [label="fnlwgt <= 147803.0\nentropy = 0.9183\nsamples = 3\nvalue = [2, 1, 0]"] ;
736 -> 738 ;
739 [label="entropy = 0.0\nsamples = 2\nvalue = [2, 0, 0]"] ;
738 -> 739 ;
740 [label="entropy = 0.0\nsamples = 1\nvalue = [0, 1, 0]"] ;
738 -> 740 ;
741 [label="entropy = 0.0\nsamples = 1\nvalue = [0, 1, 0]"] ;
735 -> 741 ;
742 [label="workclass=  <= 0.5\nentropy = 0.9183\nsamples = 3\nvalue = [1, 2, 0]"] ;
734 -> 742 ;
743 [label="entropy = 0.0\nsamples = 1\nvalue = [1, 0, 0]"] ;
742 -> 743 ;
744 [label="entropy = 0.0\nsamples = 2\nvalue = [0, 2, 0]"] ;
742 -> 744 ;
745 [label="entropy = 0.0\nsamples = 16\nvalue = [16, 0, 0]"] ;
733 -> 745 ;
746 [label="relationship= Husband <= 0.5\nentropy = 0.9183\nsamples = 3\nvalue = [1, 2, 0]"] ;
732 -> 746 ;
747 [label="entropy = 0.0\nsamples = 1\nvalue = [1, 0, 0]"] ;
746 -> 747 ;
748 [label="entropy = 0.0\nsamples = 2\nvalue = [0, 2, 0]"] ;
746 -> 748 ;
749 [label="entropy = 0.0\nsamples = 2\nvalue = [0, 2, 0]"] ;
731 -> 749 ;
750 [label="workclass= Self-emp-inc <= 0.5\nentropy = 0.8974\nsamples = 51\nvalue = [35, 16, 0]"] ;
722 -> 750 ;
751 [label="age <= 60.5\nentropy = 0.8427\nsamples = 48\nvalue = [35, 13, 0]"] ;
750 -> 751 ;
752 [label="fnlwgt <= 123091.0\nentropy = 0.9097\nsamples = 40\nvalue = [27, 13, 0]"] ;
751 -> 752 ;
753 [label="age <= 57.5\nentropy = 0.5665\nsamples = 15\nvalue = [13, 2, 0]"] ;
752 -> 753 ;
754 [label="occupation= Prof-specialty <= 0.5\nentropy = 0.3712\nsamples = 14\nvalue = [13, 1, 0]"] ;
753 -> 754 ;
755 [label="entropy = 0.0\nsamples = 13\nvalue = [13, 0, 0]"] ;
754 -> 755 ;
756 [label="entropy = 0.0\nsamples = 1\nvalue = [0, 1, 0]"] ;
754 -> 756 ;
757 [label="entropy = 0.0\nsamples = 1\nvalue = [0, 1, 0]"] ;
753 -> 757 ;
758 [label="race= White <= 0.5\nentropy = 0.9896\nsamples = 25\nvalue = [14, 11, 0]"] ;
752 -> 758 ;
759 [label="entropy = 0.0\nsamples = 4\nvalue = [4, 0, 0]"] ;
758 -> 759 ;
760 [label="fnlwgt <= 312757.5\nentropy = 0.9984\nsamples = 21\nvalue = [10, 11, 0]"] ;
758 -> 760 ;
761 [label="fnlwgt <= 184213.0\nentropy = 0.9774\nsamples = 17\nvalue = [10, 7, 0]"] ;
760 -> 761 ;
762 [label="capital-gain <= 2032.0\nentropy = 0.9183\nsamples = 9\nvalue = [3, 6, 0]"] ;
761 -> 762 ;
763 [label="hours-per-week <= 24.5\nentropy = 0.8113\nsamples = 8\nvalue = [2, 6, 0]"] ;
762 -> 763 ;
764 [label="entropy = 0.0\nsamples = 5\nvalue = [0, 5, 0]"] ;
763 -> 764 ;
765 [label="occupation= Other-service <= 0.5\nentropy = 0.9183\nsamples = 3\nvalue = [2, 1, 0]"] ;
763 -> 765 ;
766 [label="entropy = 0.0\nsamples = 2\nvalue = [2, 0, 0]"] ;
765 -> 766 ;
767 [label="entropy = 0.0\nsamples = 1\nvalue = [0, 1, 0]"] ;
765 -> 767 ;
768 [label="entropy = 0.0\nsamples = 1\nvalue = [1, 0, 0]"] ;
762 -> 768 ;
769 [label="education= Assoc-voc <= 0.5\nentropy = 0.5436\nsamples = 8\nvalue = [7, 1, 0]"] ;
761 -> 769 ;
770 [label="entropy = 0.0\nsamples = 7\nvalue = [7, 0, 0]"] ;
769 -> 770 ;
771 [label="entropy = 0.0\nsamples = 1\nvalue = [0, 1, 0]"] ;
769 -> 771 ;
772 [label="entropy = 0.0\nsamples = 4\nvalue = [0, 4, 0]"] ;
760 -> 772 ;
773 [label="entropy = 0.0\nsamples = 8\nvalue = [8, 0, 0]"] ;
751 -> 773 ;
774 [label="entropy = 0.0\nsamples = 3\nvalue = [0, 3, 0]"] ;
750 -> 774 ;
775 [label="occupation= Farming-fishing <= 0.5\nentropy = 0.9554\nsamples = 1382\nvalue = [862, 520, 0]"] ;
721 -> 775 ;
776 [label="age <= 35.5\nentropy = 0.9649\nsamples = 1315\nvalue = [802, 513, 0]"] ;
775 -> 776 ;
777 [label="hours-per-week <= 49.5\nentropy = 0.8382\nsamples = 310\nvalue = [227, 83, 0]"] ;
776 -> 777 ;
778 [label="occupation= Tech-support <= 0.5\nentropy = 0.7587\nsamples = 219\nvalue = [171, 48, 0]"] ;
777 -> 778 ;
779 [label="fnlwgt <= 117102.5\nentropy = 0.7349\nsamples = 213\nvalue = [169, 44, 0]"] ;
778 -> 779 ;
780 [label="occupation= Prof-specialty <= 0.5\nentropy = 0.4341\nsamples = 56\nvalue = [51, 5, 0]"] ;
779 -> 780 ;
781 [label="native-country= Cambodia <= 0.5\nentropy = 0.3182\nsamples = 52\nvalue = [49, 3, 0]"] ;
780 -> 781 ;
782 [label="occupation= Protective-serv <= 0.5\nentropy = 0.2387\nsamples = 51\nvalue = [49, 2, 0]"] ;
781 -> 782 ;
783 [label="fnlwgt <= 92322.0\nentropy = 0.1414\nsamples = 50\nvalue = [49, 1, 0]"] ;
782 -> 783 ;
784 [label="entropy = 0.0\nsamples = 35\nvalue = [35, 0, 0]"] ;
783 -> 784 ;
785 [label="fnlwgt <= 95240.0\nentropy = 0.3534\nsamples = 15\nvalue = [14, 1, 0]"] ;
783 -> 785 ;
786 [label="entropy = 0.0\nsamples = 1\nvalue = [0, 1, 0]"] ;
785 -> 786 ;
787 [label="entropy = 0.0\nsamples = 14\nvalue = [14, 0, 0]"] ;
785 -> 787 ;
788 [label="entropy = 0.0\nsamples = 1\nvalue = [0, 1, 0]"] ;
782 -> 788 ;
789 [label="entropy = 0.0\nsamples = 1\nvalue = [0, 1, 0]"] ;
781 -> 789 ;
790 [label="hours-per-week <= 38.0\nentropy = 1.0\nsamples = 4\nvalue = [2, 2, 0]"] ;
780 -> 790 ;
791 [label="entropy = 0.0\nsamples = 1\nvalue = [0, 1, 0]"] ;
790 -> 791 ;
792 [label="age <= 33.0\nentropy = 0.9183\nsamples = 3\nvalue = [2, 1, 0]"] ;
790 -> 792 ;
793 [label="entropy = 0.0\nsamples = 2\nvalue = [2, 0, 0]"] ;
792 -> 793 ;
794 [label="entropy = 0.0\nsamples = 1\nvalue = [0, 1, 0]"] ;
792 -> 794 ;
795 [label="fnlwgt <= 223756.0\nentropy = 0.8087\nsamples = 157\nvalue = [118, 39, 0]"] ;
779 -> 795 ;
796 [label="fnlwgt <= 209562.5\nentropy = 0.9183\nsamples = 96\nvalue = [64, 32, 0]"] ;
795 -> 796 ;
797 [label="occupation= Transport-moving <= 0.5\nentropy = 0.8784\nsamples = 84\nvalue = [59, 25, 0]"] ;
796 -> 797 ;
798 [label="fnlwgt <= 208202.0\nentropy = 0.9094\nsamples = 77\nvalue = [52, 25, 0]"] ;
797 -> 798 ;
799 [label="fnlwgt <= 205429.5\nentropy = 0.9227\nsamples = 74\nvalue = [49, 25, 0]"] ;
798 -> 799 ;
800 [label="sex= Male <= 0.5\nentropy = 0.8918\nsamples = 68\nvalue = [47, 21, 0]"] ;
799 -> 800 ;
801 [label="workclass=  <= 0.5\nentropy = 0.4395\nsamples = 11\nvalue = [10, 1, 0]"] ;
800 -> 801 ;
802 [label="entropy = 0.0\nsamples = 10\nvalue = [10, 0, 0]"] ;
801 -> 802 ;
803 [label="entropy = 0.0\nsamples = 1\nvalue = [0, 1, 0]"] ;
801 -> 803 ;
804 [label="age <= 34.5\nentropy = 0.9348\nsamples = 57\nvalue = [37, 20, 0]"] ;
800 -> 804 ;
805 [label="age <= 32.5\nentropy = 0.9781\nsamples = 46\nvalue = [27, 19, 0]"] ;
804 -> 805 ;
806 [label="education-num <= 9.5\nentropy = 0.8709\nsamples = 24\nvalue = [17, 7, 0]"] ;
805 -> 806 ;
807 [label="occupation= Craft-repair <= 0.5\nentropy = 0.5436\nsamples = 16\nvalue = [14, 2, 0]"] ;
806 -> 807 ;
808 [label="entropy = 0.0\nsamples = 13\nvalue = [13, 0, 0]"] ;
807 -> 808 ;
809 [label="workclass= Private <= 0.5\nentropy = 0.9183\nsamples = 3\nvalue = [1, 2, 0]"] ;
807 -> 809 ;
810 [label="entropy = 0.0\nsamples = 2\nvalue = [0, 2, 0]"] ;
809 -> 810 ;
811 [label="entropy = 0.0\nsamples = 1\nvalue = [1, 0, 0]"] ;
809 -> 811 ;
812 [label="fnlwgt <= 193767.0\nentropy = 0.9544\nsamples = 8\nvalue = [3, 5, 0]"] ;
806 -> 812 ;
813 [label="occupation= Craft-repair <= 0.5\nentropy = 0.65\nsamples = 6\nvalue = [1, 5, 0]"] ;
812 -> 813 ;
814 [label="entropy = 0.0\nsamples = 4\nvalue = [0, 4, 0]"] ;
813 -> 814 ;
815 [label="fnlwgt <= 156063.5\nentropy = 1.0\nsamples = 2\nvalue = [1, 1, 0]"] ;
813 -> 815 ;
816 [label="entropy = 0.0\nsamples = 1\nvalue = [1, 0, 0]"] ;
815 -> 816 ;
817 [label="entropy = 0.0\nsamples = 1\nvalue = [0, 1, 0]"] ;
815 -> 817 ;
818 [label="entropy = 0.0\nsamples = 2\nvalue = [2, 0, 0]"] ;
812 -> 818 ;
819 [label="hours-per-week <= 46.5\nentropy = 0.994\nsamples = 22\nvalue = [10, 12, 0]"] ;
805 -> 819 ;
820 [label="occupation= Exec-managerial <= 0.5\nentropy = 1.0\nsamples = 20\nvalue = [10, 10, 0]"] ;
819 -> 820 ;
821 [label="fnlwgt <= 133669.0\nentropy = 0.998\nsamples = 19\nvalue = [9, 10, 0]"] ;
820 -> 821 ;
822 [label="entropy = 0.0\nsamples = 2\nvalue = [0, 2, 0]"] ;
821 -> 822 ;
823 [label="education= Assoc-voc <= 0.5\nentropy = 0.9975\nsamples = 17\nvalue = [9, 8, 0]"] ;
821 -> 823 ;
824 [label="fnlwgt <= 156316.0\nentropy = 0.9968\nsamples = 15\nvalue = [7, 8, 0]"] ;
823 -> 824 ;
825 [label="entropy = 0.0\nsamples = 2\nvalue = [0, 2, 0]"] ;
824 -> 825 ;
826 [label="fnlwgt <= 181926.0\nentropy = 0.9957\nsamples = 13\nvalue = [7, 6, 0]"] ;
824 -> 826 ;
827 [label="hours-per-week <= 42.0\nentropy = 0.7219\nsamples = 5\nvalue = [4, 1, 0]"] ;
826 -> 827 ;
828 [label="entropy = 0.0\nsamples = 3\nvalue = [3, 0, 0]"] ;
827 -> 828 ;
829 [label="fnlwgt <= 169700.0\nentropy = 1.0\nsamples = 2\nvalue = [1, 1, 0]"] ;
827 -> 829 ;
830 [label="entropy = 0.0\nsamples = 1\nvalue = [0, 1, 0]"] ;
829 -> 830 ;
831 [label="entropy = 0.0\nsamples = 1\nvalue = [1, 0, 0]"] ;
829 -> 831 ;
832 [label="fnlwgt <= 193588.5\nentropy = 0.9544\nsamples = 8\nvalue = [3, 5, 0]"] ;
826 -> 832 ;
833 [label="entropy = 0.0\nsamples = 3\nvalue = [0, 3, 0]"] ;
832 -> 833 ;
834 [label="occupation= Craft-repair <= 0.5\nentropy = 0.971\nsamples = 5\nvalue = [3, 2, 0]"] ;
832 -> 834 ;
835 [label="entropy = 0.0\nsamples = 2\nvalue = [2, 0, 0]"] ;
834 -> 835 ;
836 [label="fnlwgt <= 196063.0\nentropy = 0.9183\nsamples = 3\nvalue = [1, 2, 0]"] ;
834 -> 836 ;
837 [label="entropy = 0.0\nsamples = 1\nvalue = [1, 0, 0]"] ;
836 -> 837 ;
838 [label="entropy = 0.0\nsamples = 2\nvalue = [0, 2, 0]"] ;
836 -> 838 ;
839 [label="entropy = 0.0\nsamples = 2\nvalue = [2, 0, 0]"] ;
823 -> 839 ;
840 [label="entropy = 0.0\nsamples = 1\nvalue = [1, 0, 0]"] ;
820 -> 840 ;
841 [label="entropy = 0.0\nsamples = 2\nvalue = [0, 2, 0]"] ;
819 -> 841 ;
842 [label="native-country= United-Sta <= 0.5\nentropy = 0.4395\nsamples = 11\nvalue = [10, 1, 0]"] ;
804 -> 842 ;
843 [label="entropy = 0.0\nsamples = 1\nvalue = [0, 1, 0]"] ;
842 -> 843 ;
844 [label="entropy = 0.0\nsamples = 10\nvalue = [10, 0, 0]"] ;
842 -> 844 ;
845 [label="native-country= France <= 0.5\nentropy = 0.9183\nsamples = 6\nvalue = [2, 4, 0]"] ;
799 -> 845 ;
846 [label="occupation= Adm-clerical <= 0.5\nentropy = 0.7219\nsamples = 5\nvalue = [1, 4, 0]"] ;
845 -> 846 ;
847 [label="entropy = 0.0\nsamples = 3\nvalue = [0, 3, 0]"] ;
846 -> 847 ;
848 [label="sex= Male <= 0.5\nentropy = 1.0\nsamples = 2\nvalue = [1, 1, 0]"] ;
846 -> 848 ;
849 [label="entropy = 0.0\nsamples = 1\nvalue = [0, 1, 0]"] ;
848 -> 849 ;
850 [label="entropy = 0.0\nsamples = 1\nvalue = [1, 0, 0]"] ;
848 -> 850 ;
851 [label="entropy = 0.0\nsamples = 1\nvalue = [1, 0, 0]"] ;
845 -> 851 ;
852 [label="entropy = 0.0\nsamples = 3\nvalue = [3, 0, 0]"] ;
798 -> 852 ;
853 [label="entropy = 0.0\nsamples = 7\nvalue = [7, 0, 0]"] ;
797 -> 853 ;
854 [label="fnlwgt <= 220570.5\nentropy = 0.9799\nsamples = 12\nvalue = [5, 7, 0]"] ;
796 -> 854 ;
855 [label="workclass= Private <= 0.5\nentropy = 0.65\nsamples = 6\nvalue = [1, 5, 0]"] ;
854 -> 855 ;
856 [label="entropy = 0.0\nsamples = 1\nvalue = [1, 0, 0]"] ;
855 -> 856 ;
857 [label="entropy = 0.0\nsamples = 5\nvalue = [0, 5, 0]"] ;
855 -> 857 ;
858 [label="fnlwgt <= 221800.5\nentropy = 0.9183\nsamples = 6\nvalue = [4, 2, 0]"] ;
854 -> 858 ;
859 [label="entropy = 0.0\nsamples = 3\nvalue = [3, 0, 0]"] ;
858 -> 859 ;
860 [label="native-country= Mexico <= 0.5\nentropy = 0.9183\nsamples = 3\nvalue = [1, 2, 0]"] ;
858 -> 860 ;
861 [label="entropy = 0.0\nsamples = 2\nvalue = [0, 2, 0]"] ;
860 -> 861 ;
862 [label="entropy = 0.0\nsamples = 1\nvalue = [1, 0, 0]"] ;
860 -> 862 ;
863 [label="fnlwgt <= 257818.0\nentropy = 0.5141\nsamples = 61\nvalue = [54, 7, 0]"] ;
795 -> 863 ;
864 [label="entropy = 0.0\nsamples = 20\nvalue = [20, 0, 0]"] ;
863 -> 864 ;
865 [label="fnlwgt <= 380690.5\nentropy = 0.6594\nsamples = 41\nvalue = [34, 7, 0]"] ;
863 -> 865 ;
866 [label="age <= 33.5\nentropy = 0.8113\nsamples = 28\nvalue = [21, 7, 0]"] ;
865 -> 866 ;
867 [label="occupation= Transport-moving <= 0.5\nentropy = 0.9183\nsamples = 21\nvalue = [14, 7, 0]"] ;
866 -> 867 ;
868 [label="fnlwgt <= 261362.5\nentropy = 0.9641\nsamples = 18\nvalue = [11, 7, 0]"] ;
867 -> 868 ;
869 [label="entropy = 0.0\nsamples = 2\nvalue = [0, 2, 0]"] ;
868 -> 869 ;
870 [label="occupation= Craft-repair <= 0.5\nentropy = 0.896\nsamples = 16\nvalue = [11, 5, 0]"] ;
868 -> 870 ;
871 [label="fnlwgt <= 325325.0\nentropy = 0.9612\nsamples = 13\nvalue = [8, 5, 0]"] ;
870 -> 871 ;
872 [label="hours-per-week <= 37.0\nentropy = 0.65\nsamples = 6\nvalue = [5, 1, 0]"] ;
871 -> 872 ;
873 [label="entropy = 0.0\nsamples = 1\nvalue = [0, 1, 0]"] ;
872 -> 873 ;
874 [label="entropy = 0.0\nsamples = 5\nvalue = [5, 0, 0]"] ;
872 -> 874 ;
875 [label="fnlwgt <= 348819.5\nentropy = 0.9852\nsamples = 7\nvalue = [3, 4, 0]"] ;
871 -> 875 ;
876 [label="entropy = 0.0\nsamples = 3\nvalue = [0, 3, 0]"] ;
875 -> 876 ;
877 [label="occupation= Sales <= 0.5\nentropy = 0.8113\nsamples = 4\nvalue = [3, 1, 0]"] ;
875 -> 877 ;
878 [label="entropy = 0.0\nsamples = 3\nvalue = [3, 0, 0]"] ;
877 -> 878 ;
879 [label="entropy = 0.0\nsamples = 1\nvalue = [0, 1, 0]"] ;
877 -> 879 ;
880 [label="entropy = 0.0\nsamples = 3\nvalue = [3, 0, 0]"] ;
870 -> 880 ;
881 [label="entropy = 0.0\nsamples = 3\nvalue = [3, 0, 0]"] ;
867 -> 881 ;
882 [label="entropy = 0.0\nsamples = 7\nvalue = [7, 0, 0]"] ;
866 -> 882 ;
883 [label="entropy = 0.0\nsamples = 13\nvalue = [13, 0, 0]"] ;
865 -> 883 ;
884 [label="fnlwgt <= 222232.5\nentropy = 0.9183\nsamples = 6\nvalue = [2, 4, 0]"] ;
778 -> 884 ;
885 [label="entropy = 0.0\nsamples = 3\nvalue = [0, 3, 0]"] ;
884 -> 885 ;
886 [label="native-country= United-Sta <= 0.5\nentropy = 0.9183\nsamples = 3\nvalue = [2, 1, 0]"] ;
884 -> 886 ;
887 [label="entropy = 0.0\nsamples = 1\nvalue = [0, 1, 0]"] ;
886 -> 887 ;
888 [label="entropy = 0.0\nsamples = 2\nvalue = [2, 0, 0]"] ;
886 -> 888 ;
889 [label="relationship= Husband <= 0.5\nentropy = 0.9612\nsamples = 91\nvalue = [56, 35, 0]"] ;
777 -> 889 ;
890 [label="entropy = 0.0\nsamples = 6\nvalue = [6, 0, 0]"] ;
889 -> 890 ;
891 [label="occupation= Other-service <= 0.5\nentropy = 0.9774\nsamples = 85\nvalue = [50, 35, 0]"] ;
889 -> 891 ;
892 [label="fnlwgt <= 390258.0\nentropy = 0.9887\nsamples = 80\nvalue = [45, 35, 0]"] ;
891 -> 892 ;
893 [label="native-country= Jamaica <= 0.5\nentropy = 0.9829\nsamples = 78\nvalue = [45, 33, 0]"] ;
892 -> 893 ;
894 [label="workclass= Self-emp-inc <= 0.5\nentropy = 0.9754\nsamples = 76\nvalue = [45, 31, 0]"] ;
893 -> 894 ;
895 [label="fnlwgt <= 340158.5\nentropy = 0.9558\nsamples = 69\nvalue = [43, 26, 0]"] ;
894 -> 895 ;
896 [label="education= Some-college <= 0.5\nentropy = 0.9745\nsamples = 64\nvalue = [38, 26, 0]"] ;
895 -> 896 ;
897 [label="native-country= United-Sta <= 0.5\nentropy = 0.868\nsamples = 38\nvalue = [27, 11, 0]"] ;
896 -> 897 ;
898 [label="entropy = 0.0\nsamples = 2\nvalue = [0, 2, 0]"] ;
897 -> 898 ;
899 [label="workclass= Self-emp-not-inc <= 0.5\nentropy = 0.8113\nsamples = 36\nvalue = [27, 9, 0]"] ;
897 -> 899 ;
900 [label="workclass= Federal-gov <= 0.5\nentropy = 0.8813\nsamples = 30\nvalue = [21, 9, 0]"] ;
899 -> 900 ;
901 [label="capital-gain <= 1551.5\nentropy = 0.8498\nsamples = 29\nvalue = [21, 8, 0]"] ;
900 -> 901 ;
902 [label="occupation= Exec-managerial <= 0.5\nentropy = 0.8113\nsamples = 28\nvalue = [21, 7, 0]"] ;
901 -> 902 ;
903 [label="fnlwgt <= 66943.5\nentropy = 0.8865\nsamples = 23\nvalue = [16, 7, 0]"] ;
902 -> 903 ;
904 [label="entropy = 0.0\nsamples = 4\nvalue = [4, 0, 0]"] ;
903 -> 904 ;
905 [label="hours-per-week <= 70.0\nentropy = 0.9495\nsamples = 19\nvalue = [12, 7, 0]"] ;
903 -> 905 ;
906 [label="fnlwgt <= 233952.0\nentropy = 0.9183\nsamples = 18\nvalue = [12, 6, 0]"] ;
905 -> 906 ;
907 [label="age <= 34.5\nentropy = 0.971\nsamples = 15\nvalue = [9, 6, 0]"] ;
906 -> 907 ;
908 [label="occupation= Transport-moving <= 0.5\nentropy = 0.9403\nsamples = 14\nvalue = [9, 5, 0]"] ;
907 -> 908 ;
909 [label="age <= 33.5\nentropy = 1.0\nsamples = 10\nvalue = [5, 5, 0]"] ;
908 -> 909 ;
910 [label="fnlwgt <= 155948.5\nentropy = 0.9544\nsamples = 8\nvalue = [3, 5, 0]"] ;
909 -> 910 ;
911 [label="fnlwgt <= 133697.5\nentropy = 0.971\nsamples = 5\nvalue = [3, 2, 0]"] ;
910 -> 911 ;
912 [label="age <= 31.5\nentropy = 0.9183\nsamples = 3\nvalue = [1, 2, 0]"] ;
911 -> 912 ;
913 [label="entropy = 0.0\nsamples = 1\nvalue = [1, 0, 0]"] ;
912 -> 913 ;
914 [label="entropy = 0.0\nsamples = 2\nvalue = [0, 2, 0]"] ;
912 -> 914 ;
915 [label="entropy = 0.0\nsamples = 2\nvalue = [2, 0, 0]"] ;
911 -> 915 ;
916 [label="entropy = 0.0\nsamples = 3\nvalue = [0, 3, 0]"] ;
910 -> 916 ;
917 [label="entropy = 0.0\nsamples = 2\nvalue = [2, 0, 0]"] ;
909 -> 917 ;
918 [label="entropy = 0.0\nsamples = 4\nvalue = [4, 0, 0]"] ;
908 -> 918 ;
919 [label="entropy = 0.0\nsamples = 1\nvalue = [0, 1, 0]"] ;
907 -> 919 ;
920 [label="entropy = 0.0\nsamples = 3\nvalue = [3, 0, 0]"] ;
906 -> 920 ;
921 [label="entropy = 0.0\nsamples = 1\nvalue = [0, 1, 0]"] ;
905 -> 921 ;
922 [label="entropy = 0.0\nsamples = 5\nvalue = [5, 0, 0]"] ;
902 -> 922 ;
923 [label="entropy = 0.0\nsamples = 1\nvalue = [0, 1, 0]"] ;
901 -> 923 ;
924 [label="entropy = 0.0\nsamples = 1\nvalue = [0, 1, 0]"] ;
900 -> 924 ;
925 [label="entropy = 0.0\nsamples = 6\nvalue = [6, 0, 0]"] ;
899 -> 925 ;
926 [label="age <= 34.5\nentropy = 0.9829\nsamples = 26\nvalue = [11, 15, 0]"] ;
896 -> 926 ;
927 [label="age <= 32.5\nentropy = 0.8524\nsamples = 18\nvalue = [5, 13, 0]"] ;
926 -> 927 ;
928 [label="fnlwgt <= 183872.5\nentropy = 0.994\nsamples = 11\nvalue = [5, 6, 0]"] ;
927 -> 928 ;
929 [label="native-country= United-Sta <= 0.5\nentropy = 0.65\nsamples = 6\nvalue = [1, 5, 0]"] ;
928 -> 929 ;
930 [label="entropy = 0.0\nsamples = 1\nvalue = [1, 0, 0]"] ;
929 -> 930 ;
931 [label="entropy = 0.0\nsamples = 5\nvalue = [0, 5, 0]"] ;
929 -> 931 ;
932 [label="race= Black <= 0.5\nentropy = 0.7219\nsamples = 5\nvalue = [4, 1, 0]"] ;
928 -> 932 ;
933 [label="entropy = 0.0\nsamples = 4\nvalue = [4, 0, 0]"] ;
932 -> 933 ;
934 [label="entropy = 0.0\nsamples = 1\nvalue = [0, 1, 0]"] ;
932 -> 934 ;
935 [label="entropy = 0.0\nsamples = 7\nvalue = [0, 7, 0]"] ;
927 -> 935 ;
936 [label="fnlwgt <= 151818.5\nentropy = 0.8113\nsamples = 8\nvalue = [6, 2, 0]"] ;
926 -> 936 ;
937 [label="entropy = 0.0\nsamples = 3\nvalue = [3, 0, 0]"] ;
936 -> 937 ;
938 [label="fnlwgt <= 209707.5\nentropy = 0.971\nsamples = 5\nvalue = [3, 2, 0]"] ;
936 -> 938 ;
939 [label="occupation= Prof-specialty <= 0.5\nentropy = 0.9183\nsamples = 3\nvalue = [1, 2, 0]"] ;
938 -> 939 ;
940 [label="entropy = 0.0\nsamples = 1\nvalue = [0, 1, 0]"] ;
939 -> 940 ;
941 [label="hours-per-week <= 55.0\nentropy = 1.0\nsamples = 2\nvalue = [1, 1, 0]"] ;
939 -> 941 ;
942 [label="entropy = 0.0\nsamples = 1\nvalue = [0, 1, 0]"] ;
941 -> 942 ;
943 [label="entropy = 0.0\nsamples = 1\nvalue = [1, 0, 0]"] ;
941 -> 943 ;
944 [label="entropy = 0.0\nsamples = 2\nvalue = [2, 0, 0]"] ;
938 -> 944 ;
945 [label="entropy = 0.0\nsamples = 5\nvalue = [5, 0, 0]"] ;
895 -> 945 ;
946 [label="education-num <= 9.5\nentropy = 0.8631\nsamples = 7\nvalue = [2, 5, 0]"] ;
894 -> 946 ;
947 [label="entropy = 0.0\nsamples = 4\nvalue = [0, 4, 0]"] ;
946 -> 947 ;
948 [label="fnlwgt <= 262303.0\nentropy = 0.9183\nsamples = 3\nvalue = [2, 1, 0]"] ;
946 -> 948 ;
949 [label="entropy = 0.0\nsamples = 2\nvalue = [2, 0, 0]"] ;
948 -> 949 ;
950 [label="entropy = 0.0\nsamples = 1\nvalue = [0, 1, 0]"] ;
948 -> 950 ;
951 [label="entropy = 0.0\nsamples = 2\nvalue = [0, 2, 0]"] ;
893 -> 951 ;
952 [label="entropy = 0.0\nsamples = 2\nvalue = [0, 2, 0]"] ;
892 -> 952 ;
953 [label="entropy = 0.0\nsamples = 5\nvalue = [5, 0, 0]"] ;
891 -> 953 ;
954 [label="capital-loss <= 1512.0\nentropy = 0.9849\nsamples = 1005\nvalue = [575, 430, 0]"] ;
776 -> 954 ;
955 [label="occupation= Exec-managerial <= 0.5\nentropy = 0.9869\nsamples = 994\nvalue = [564, 430, 0]"] ;
954 -> 955 ;
956 [label="fnlwgt <= 117592.5\nentropy = 0.9761\nsamples = 838\nvalue = [495, 343, 0]"] ;
955 -> 956 ;
957 [label="occupation= Other-service <= 0.5\nentropy = 0.905\nsamples = 209\nvalue = [142, 67, 0]"] ;
956 -> 957 ;
958 [label="fnlwgt <= 103571.5\nentropy = 0.9216\nsamples = 199\nvalue = [132, 67, 0]"] ;
957 -> 958 ;
959 [label="fnlwgt <= 103083.0\nentropy = 0.9629\nsamples = 155\nvalue = [95, 60, 0]"] ;
958 -> 959 ;
960 [label="age <= 52.5\nentropy = 0.9544\nsamples = 152\nvalue = [95, 57, 0]"] ;
959 -> 960 ;
961 [label="fnlwgt <= 57186.0\nentropy = 0.8913\nsamples = 107\nvalue = [74, 33, 0]"] ;
960 -> 961 ;
962 [label="fnlwgt <= 29356.0\nentropy = 0.6582\nsamples = 47\nvalue = [39, 8, 0]"] ;
961 -> 962 ;
963 [label="age <= 38.0\nentropy = 0.971\nsamples = 5\nvalue = [2, 3, 0]"] ;
962 -> 963 ;
964 [label="entropy = 0.0\nsamples = 2\nvalue = [0, 2, 0]"] ;
963 -> 964 ;
965 [label="occupation= Adm-clerical <= 0.5\nentropy = 0.9183\nsamples = 3\nvalue = [2, 1, 0]"] ;
963 -> 965 ;
966 [label="entropy = 0.0\nsamples = 2\nvalue = [2, 0, 0]"] ;
965 -> 966 ;
967 [label="entropy = 0.0\nsamples = 1\nvalue = [0, 1, 0]"] ;
965 -> 967 ;
968 [label="fnlwgt <= 31046.0\nentropy = 0.5266\nsamples = 42\nvalue = [37, 5, 0]"] ;
962 -> 968 ;
969 [label="entropy = 0.0\nsamples = 8\nvalue = [8, 0, 0]"] ;
968 -> 969 ;
970 [label="capital-gain <= 3898.5\nentropy = 0.6024\nsamples = 34\nvalue = [29, 5, 0]"] ;
968 -> 970 ;
971 [label="workclass= State-gov <= 0.5\nentropy = 0.5328\nsamples = 33\nvalue = [29, 4, 0]"] ;
970 -> 971 ;
972 [label="fnlwgt <= 43712.0\nentropy = 0.4489\nsamples = 32\nvalue = [29, 3, 0]"] ;
971 -> 972 ;
973 [label="entropy = 0.0\nsamples = 12\nvalue = [12, 0, 0]"] ;
972 -> 973 ;
974 [label="fnlwgt <= 44775.0\nentropy = 0.6098\nsamples = 20\nvalue = [17, 3, 0]"] ;
972 -> 974 ;
975 [label="entropy = 0.0\nsamples = 2\nvalue = [0, 2, 0]"] ;
974 -> 975 ;
976 [label="occupation= Transport-moving <= 0.5\nentropy = 0.3095\nsamples = 18\nvalue = [17, 1, 0]"] ;
974 -> 976 ;
977 [label="entropy = 0.0\nsamples = 15\nvalue = [15, 0, 0]"] ;
976 -> 977 ;
978 [label="age <= 39.5\nentropy = 0.9183\nsamples = 3\nvalue = [2, 1, 0]"] ;
976 -> 978 ;
979 [label="entropy = 0.0\nsamples = 1\nvalue = [0, 1, 0]"] ;
978 -> 979 ;
980 [label="entropy = 0.0\nsamples = 2\nvalue = [2, 0, 0]"] ;
978 -> 980 ;
981 [label="entropy = 0.0\nsamples = 1\nvalue = [0, 1, 0]"] ;
971 -> 981 ;
982 [label="entropy = 0.0\nsamples = 1\nvalue = [0, 1, 0]"] ;
970 -> 982 ;
983 [label="race= Asian-Pac-Islander <= 0.5\nentropy = 0.9799\nsamples = 60\nvalue = [35, 25, 0]"] ;
961 -> 983 ;
984 [label="occupation= Machine-op-inspct <= 0.5\nentropy = 0.9621\nsamples = 57\nvalue = [35, 22, 0]"] ;
983 -> 984 ;
985 [label="age <= 36.5\nentropy = 0.9829\nsamples = 52\nvalue = [30, 22, 0]"] ;
984 -> 985 ;
986 [label="entropy = 0.0\nsamples = 3\nvalue = [3, 0, 0]"] ;
985 -> 986 ;
987 [label="occupation= Tech-support <= 0.5\nentropy = 0.9925\nsamples = 49\nvalue = [27, 22, 0]"] ;
985 -> 987 ;
988 [label="fnlwgt <= 95450.5\nentropy = 0.971\nsamples = 45\nvalue = [27, 18, 0]"] ;
987 -> 988 ;
989 [label="age <= 45.5\nentropy = 1.0\nsamples = 34\nvalue = [17, 17, 0]"] ;
988 -> 989 ;
990 [label="occupation= Adm-clerical <= 0.5\nentropy = 0.9495\nsamples = 19\nvalue = [12, 7, 0]"] ;
989 -> 990 ;
991 [label="hours-per-week <= 41.5\nentropy = 0.8113\nsamples = 16\nvalue = [12, 4, 0]"] ;
990 -> 991 ;
992 [label="fnlwgt <= 65590.0\nentropy = 0.9457\nsamples = 11\nvalue = [7, 4, 0]"] ;
991 -> 992 ;
993 [label="entropy = 0.0\nsamples = 2\nvalue = [0, 2, 0]"] ;
992 -> 993 ;
994 [label="fnlwgt <= 79709.5\nentropy = 0.7642\nsamples = 9\nvalue = [7, 2, 0]"] ;
992 -> 994 ;
995 [label="entropy = 0.0\nsamples = 5\nvalue = [5, 0, 0]"] ;
994 -> 995 ;
996 [label="workclass= Private <= 0.5\nentropy = 1.0\nsamples = 4\nvalue = [2, 2, 0]"] ;
994 -> 996 ;
997 [label="entropy = 0.0\nsamples = 2\nvalue = [2, 0, 0]"] ;
996 -> 997 ;
998 [label="entropy = 0.0\nsamples = 2\nvalue = [0, 2, 0]"] ;
996 -> 998 ;
999 [label="entropy = 0.0\nsamples = 5\nvalue = [5, 0, 0]"] ;
991 -> 999 ;
1000 [label="entropy = 0.0\nsamples = 3\nvalue = [0, 3, 0]"] ;
990 -> 1000 ;
1001 [label="workclass= Private <= 0.5\nentropy = 0.9183\nsamples = 15\nvalue = [5, 10, 0]"] ;
989 -> 1001 ;
1002 [label="entropy = 0.0\nsamples = 5\nvalue = [0, 5, 0]"] ;
1001 -> 1002 ;
1003 [label="occupation= Transport-moving <= 0.5\nentropy = 1.0\nsamples = 10\nvalue = [5, 5, 0]"] ;
1001 -> 1003 ;
1004 [label="fnlwgt <= 90195.5\nentropy = 0.9544\nsamples = 8\nvalue = [5, 3, 0]"] ;
1003 -> 1004 ;
1005 [label="capital-gain <= 3744.5\nentropy = 1.0\nsamples = 6\nvalue = [3, 3, 0]"] ;
1004 -> 1005 ;
1006 [label="age <= 48.0\nentropy = 0.971\nsamples = 5\nvalue = [2, 3, 0]"] ;
1005 -> 1006 ;
1007 [label="occupation= Sales <= 0.5\nentropy = 0.9183\nsamples = 3\nvalue = [2, 1, 0]"] ;
1006 -> 1007 ;
1008 [label="entropy = 0.0\nsamples = 2\nvalue = [2, 0, 0]"] ;
1007 -> 1008 ;
1009 [label="entropy = 0.0\nsamples = 1\nvalue = [0, 1, 0]"] ;
1007 -> 1009 ;
1010 [label="entropy = 0.0\nsamples = 2\nvalue = [0, 2, 0]"] ;
1006 -> 1010 ;
1011 [label="entropy = 0.0\nsamples = 1\nvalue = [1, 0, 0]"] ;
1005 -> 1011 ;
1012 [label="entropy = 0.0\nsamples = 2\nvalue = [2, 0, 0]"] ;
1004 -> 1012 ;
1013 [label="entropy = 0.0\nsamples = 2\nvalue = [0, 2, 0]"] ;
1003 -> 1013 ;
1014 [label="workclass= Self-emp-inc <= 0.5\nentropy = 0.4395\nsamples = 11\nvalue = [10, 1, 0]"] ;
988 -> 1014 ;
1015 [label="entropy = 0.0\nsamples = 10\nvalue = [10, 0, 0]"] ;
1014 -> 1015 ;
1016 [label="entropy = 0.0\nsamples = 1\nvalue = [0, 1, 0]"] ;
1014 -> 1016 ;
1017 [label="entropy = 0.0\nsamples = 4\nvalue = [0, 4, 0]"] ;
987 -> 1017 ;
1018 [label="entropy = 0.0\nsamples = 5\nvalue = [5, 0, 0]"] ;
984 -> 1018 ;
1019 [label="entropy = 0.0\nsamples = 3\nvalue = [0, 3, 0]"] ;
983 -> 1019 ;
1020 [label="fnlwgt <= 90398.0\nentropy = 0.9968\nsamples = 45\nvalue = [21, 24, 0]"] ;
960 -> 1020 ;
1021 [label="workclass= Federal-gov <= 0.5\nentropy = 0.971\nsamples = 40\nvalue = [16, 24, 0]"] ;
1020 -> 1021 ;
1022 [label="age <= 60.5\nentropy = 0.9911\nsamples = 36\nvalue = [16, 20, 0]"] ;
1021 -> 1022 ;
1023 [label="hours-per-week <= 66.0\nentropy = 0.9427\nsamples = 25\nvalue = [9, 16, 0]"] ;
1022 -> 1023 ;
1024 [label="workclass= Self-emp-not-inc <= 0.5\nentropy = 0.9183\nsamples = 24\nvalue = [8, 16, 0]"] ;
1023 -> 1024 ;
1025 [label="fnlwgt <= 24595.5\nentropy = 0.8865\nsamples = 23\nvalue = [7, 16, 0]"] ;
1024 -> 1025 ;
1026 [label="entropy = 0.0\nsamples = 1\nvalue = [1, 0, 0]"] ;
1025 -> 1026 ;
1027 [label="fnlwgt <= 49125.5\nentropy = 0.8454\nsamples = 22\nvalue = [6, 16, 0]"] ;
1025 -> 1027 ;
1028 [label="entropy = 0.0\nsamples = 6\nvalue = [0, 6, 0]"] ;
1027 -> 1028 ;
1029 [label="fnlwgt <= 51965.0\nentropy = 0.9544\nsamples = 16\nvalue = [6, 10, 0]"] ;
1027 -> 1029 ;
1030 [label="entropy = 0.0\nsamples = 2\nvalue = [2, 0, 0]"] ;
1029 -> 1030 ;
1031 [label="fnlwgt <= 81592.5\nentropy = 0.8631\nsamples = 14\nvalue = [4, 10, 0]"] ;
1029 -> 1031 ;
1032 [label="occupation= Tech-support <= 0.5\nentropy = 0.5033\nsamples = 9\nvalue = [1, 8, 0]"] ;
1031 -> 1032 ;
1033 [label="entropy = 0.0\nsamples = 8\nvalue = [0, 8, 0]"] ;
1032 -> 1033 ;
1034 [label="entropy = 0.0\nsamples = 1\nvalue = [1, 0, 0]"] ;
1032 -> 1034 ;
1035 [label="occupation= Transport-moving <= 0.5\nentropy = 0.971\nsamples = 5\nvalue = [3, 2, 0]"] ;
1031 -> 1035 ;
1036 [label="entropy = 0.0\nsamples = 2\nvalue = [2, 0, 0]"] ;
1035 -> 1036 ;
1037 [label="hours-per-week <= 49.0\nentropy = 0.9183\nsamples = 3\nvalue = [1, 2, 0]"] ;
1035 -> 1037 ;
1038 [label="entropy = 0.0\nsamples = 2\nvalue = [0, 2, 0]"] ;
1037 -> 1038 ;
1039 [label="entropy = 0.0\nsamples = 1\nvalue = [1, 0, 0]"] ;
1037 -> 1039 ;
1040 [label="entropy = 0.0\nsamples = 1\nvalue = [1, 0, 0]"] ;
1024 -> 1040 ;
1041 [label="entropy = 0.0\nsamples = 1\nvalue = [1, 0, 0]"] ;
1023 -> 1041 ;
1042 [label="occupation= Craft-repair <= 0.5\nentropy = 0.9457\nsamples = 11\nvalue = [7, 4, 0]"] ;
1022 -> 1042 ;
1043 [label="occupation= Protective-serv <= 0.5\nentropy = 1.0\nsamples = 8\nvalue = [4, 4, 0]"] ;
1042 -> 1043 ;
1044 [label="age <= 64.0\nentropy = 0.9183\nsamples = 6\nvalue = [2, 4, 0]"] ;
1043 -> 1044 ;
1045 [label="age <= 62.5\nentropy = 0.9183\nsamples = 3\nvalue = [2, 1, 0]"] ;
1044 -> 1045 ;
1046 [label="entropy = 0.0\nsamples = 1\nvalue = [0, 1, 0]"] ;
1045 -> 1046 ;
1047 [label="entropy = 0.0\nsamples = 2\nvalue = [2, 0, 0]"] ;
1045 -> 1047 ;
1048 [label="entropy = 0.0\nsamples = 3\nvalue = [0, 3, 0]"] ;
1044 -> 1048 ;
1049 [label="entropy = 0.0\nsamples = 2\nvalue = [2, 0, 0]"] ;
1043 -> 1049 ;
1050 [label="entropy = 0.0\nsamples = 3\nvalue = [3, 0, 0]"] ;
1042 -> 1050 ;
1051 [label="entropy = 0.0\nsamples = 4\nvalue = [0, 4, 0]"] ;
1021 -> 1051 ;
1052 [label="entropy = 0.0\nsamples = 5\nvalue = [5, 0, 0]"] ;
1020 -> 1052 ;
1053 [label="entropy = 0.0\nsamples = 3\nvalue = [0, 3, 0]"] ;
959 -> 1053 ;
1054 [label="age <= 43.5\nentropy = 0.6321\nsamples = 44\nvalue = [37, 7, 0]"] ;
958 -> 1054 ;
1055 [label="entropy = 0.0\nsamples = 19\nvalue = [19, 0, 0]"] ;
1054 -> 1055 ;
1056 [label="fnlwgt <= 113072.5\nentropy = 0.8555\nsamples = 25\nvalue = [18, 7, 0]"] ;
1054 -> 1056 ;
1057 [label="age <= 57.0\nentropy = 0.971\nsamples = 15\nvalue = [9, 6, 0]"] ;
1056 -> 1057 ;
1058 [label="fnlwgt <= 108963.0\nentropy = 0.8113\nsamples = 12\nvalue = [9, 3, 0]"] ;
1057 -> 1058 ;
1059 [label="entropy = 0.0\nsamples = 6\nvalue = [6, 0, 0]"] ;
1058 -> 1059 ;
1060 [label="age <= 46.0\nentropy = 1.0\nsamples = 6\nvalue = [3, 3, 0]"] ;
1058 -> 1060 ;
1061 [label="entropy = 0.0\nsamples = 2\nvalue = [2, 0, 0]"] ;
1060 -> 1061 ;
1062 [label="education-num <= 10.5\nentropy = 0.8113\nsamples = 4\nvalue = [1, 3, 0]"] ;
1060 -> 1062 ;
1063 [label="entropy = 0.0\nsamples = 3\nvalue = [0, 3, 0]"] ;
1062 -> 1063 ;
1064 [label="entropy = 0.0\nsamples = 1\nvalue = [1, 0, 0]"] ;
1062 -> 1064 ;
1065 [label="entropy = 0.0\nsamples = 3\nvalue = [0, 3, 0]"] ;
1057 -> 1065 ;
1066 [label="occupation= Prof-specialty <= 0.5\nentropy = 0.469\nsamples = 10\nvalue = [9, 1, 0]"] ;
1056 -> 1066 ;
1067 [label="entropy = 0.0\nsamples = 9\nvalue = [9, 0, 0]"] ;
1066 -> 1067 ;
1068 [label="entropy = 0.0\nsamples = 1\nvalue = [0, 1, 0]"] ;
1066 -> 1068 ;
1069 [label="entropy = 0.0\nsamples = 10\nvalue = [10, 0, 0]"] ;
957 -> 1069 ;
1070 [label="occupation= Prof-specialty <= 0.5\nentropy = 0.9892\nsamples = 629\nvalue = [353, 276, 0]"] ;
956 -> 1070 ;
1071 [label="hours-per-week <= 79.0\nentropy = 0.9842\nsamples = 596\nvalue = [342, 254, 0]"] ;
1070 -> 1071 ;
1072 [label="capital-loss <= 742.5\nentropy = 0.9825\nsamples = 592\nvalue = [342, 250, 0]"] ;
1071 -> 1072 ;
1073 [label="fnlwgt <= 541444.5\nentropy = 0.9807\nsamples = 588\nvalue = [342, 246, 0]"] ;
1072 -> 1073 ;
1074 [label="fnlwgt <= 256494.0\nentropy = 0.9787\nsamples = 584\nvalue = [342, 242, 0]"] ;
1073 -> 1074 ;
1075 [label="fnlwgt <= 206681.5\nentropy = 0.9911\nsamples = 441\nvalue = [245, 196, 0]"] ;
1074 -> 1075 ;
1076 [label="capital-gain <= 3120.0\nentropy = 0.9726\nsamples = 340\nvalue = [203, 137, 0]"] ;
1075 -> 1076 ;
1077 [label="hours-per-week <= 36.5\nentropy = 0.9819\nsamples = 323\nvalue = [187, 136, 0]"] ;
1076 -> 1077 ;
1078 [label="entropy = 0.0\nsamples = 7\nvalue = [7, 0, 0]"] ;
1077 -> 1078 ;
1079 [label="capital-gain <= 2994.0\nentropy = 0.986\nsamples = 316\nvalue = [180, 136, 0]"] ;
1077 -> 1079 ;
1080 [label="hours-per-week <= 43.5\nentropy = 0.9829\nsamples = 312\nvalue = [180, 132, 0]"] ;
1079 -> 1080 ;
1081 [label="hours-per-week <= 39.0\nentropy = 0.951\nsamples = 189\nvalue = [119, 70, 0]"] ;
1080 -> 1081 ;
1082 [label="fnlwgt <= 144769.5\nentropy = 0.7219\nsamples = 5\nvalue = [1, 4, 0]"] ;
1081 -> 1082 ;
1083 [label="entropy = 0.0\nsamples = 1\nvalue = [1, 0, 0]"] ;
1082 -> 1083 ;
1084 [label="entropy = 0.0\nsamples = 4\nvalue = [0, 4, 0]"] ;
1082 -> 1084 ;
1085 [label="workclass= State-gov <= 0.5\nentropy = 0.9416\nsamples = 184\nvalue = [118, 66, 0]"] ;
1081 -> 1085 ;
1086 [label="occupation= Protective-serv <= 0.5\nentropy = 0.9529\nsamples = 177\nvalue = [111, 66, 0]"] ;
1085 -> 1086 ;
1087 [label="age <= 64.5\nentropy = 0.9367\nsamples = 170\nvalue = [110, 60, 0]"] ;
1086 -> 1087 ;
1088 [label="relationship= Wife <= 0.5\nentropy = 0.9439\nsamples = 166\nvalue = [106, 60, 0]"] ;
1087 -> 1088 ;
1089 [label="education= Assoc-voc <= 0.5\nentropy = 0.9248\nsamples = 150\nvalue = [99, 51, 0]"] ;
1088 -> 1089 ;
1090 [label="race= White <= 0.5\nentropy = 0.895\nsamples = 138\nvalue = [95, 43, 0]"] ;
1089 -> 1090 ;
1091 [label="occupation= Sales <= 0.5\nentropy = 0.3534\nsamples = 15\nvalue = [14, 1, 0]"] ;
1090 -> 1091 ;
1092 [label="entropy = 0.0\nsamples = 13\nvalue = [13, 0, 0]"] ;
1091 -> 1092 ;
1093 [label="education-num <= 9.5\nentropy = 1.0\nsamples = 2\nvalue = [1, 1, 0]"] ;
1091 -> 1093 ;
1094 [label="entropy = 0.0\nsamples = 1\nvalue = [1, 0, 0]"] ;
1093 -> 1094 ;
1095 [label="entropy = 0.0\nsamples = 1\nvalue = [0, 1, 0]"] ;
1093 -> 1095 ;
1096 [label="hours-per-week <= 41.5\nentropy = 0.9262\nsamples = 123\nvalue = [81, 42, 0]"] ;
1090 -> 1096 ;
1097 [label="workclass= Self-emp-inc <= 0.5\nentropy = 0.9341\nsamples = 120\nvalue = [78, 42, 0]"] ;
1096 -> 1097 ;
1098 [label="native-country= France <= 0.5\nentropy = 0.9418\nsamples = 117\nvalue = [75, 42, 0]"] ;
1097 -> 1098 ;
1099 [label="age <= 63.5\nentropy = 0.9371\nsamples = 116\nvalue = [75, 41, 0]"] ;
1098 -> 1099 ;
1100 [label="native-country= United-Sta <= 0.5\nentropy = 0.9321\nsamples = 115\nvalue = [75, 40, 0]"] ;
1099 -> 1100 ;
1101 [label="entropy = 0.0\nsamples = 5\nvalue = [5, 0, 0]"] ;
1100 -> 1101 ;
1102 [label="age <= 59.5\nentropy = 0.9457\nsamples = 110\nvalue = [70, 40, 0]"] ;
1100 -> 1102 ;
1103 [label="age <= 49.5\nentropy = 0.9623\nsamples = 101\nvalue = [62, 39, 0]"] ;
1102 -> 1103 ;
1104 [label="fnlwgt <= 159694.0\nentropy = 0.9127\nsamples = 61\nvalue = [41, 20, 0]"] ;
1103 -> 1104 ;
1105 [label="fnlwgt <= 124186.5\nentropy = 0.684\nsamples = 22\nvalue = [18, 4, 0]"] ;
1104 -> 1105 ;
1106 [label="education= HS-grad <= 0.5\nentropy = 0.9852\nsamples = 7\nvalue = [4, 3, 0]"] ;
1105 -> 1106 ;
1107 [label="entropy = 0.0\nsamples = 2\nvalue = [2, 0, 0]"] ;
1106 -> 1107 ;
1108 [label="fnlwgt <= 119999.0\nentropy = 0.971\nsamples = 5\nvalue = [2, 3, 0]"] ;
1106 -> 1108 ;
1109 [label="fnlwgt <= 118624.0\nentropy = 0.9183\nsamples = 3\nvalue = [2, 1, 0]"] ;
1108 -> 1109 ;
1110 [label="entropy = 0.0\nsamples = 1\nvalue = [0, 1, 0]"] ;
1109 -> 1110 ;
1111 [label="entropy = 0.0\nsamples = 2\nvalue = [2, 0, 0]"] ;
1109 -> 1111 ;
1112 [label="entropy = 0.0\nsamples = 2\nvalue = [0, 2, 0]"] ;
1108 -> 1112 ;
